SVM-light Version V6.01
0 # kernel type
3 # kernel parameter -d 
1 # kernel parameter -g 
1 # kernel parameter -s 
1 # kernel parameter -r 
empty# kernel parameter -u 
8473 # highest feature index 
40 # number of training documents 
41 # number of support vectors plus 1 
0.06403023 # threshold b, each following line is a SV (starting with alpha*y)
-1.0000000029802323 4:0.018298 8:0.022576701 10:0.00088876003 20:0.064929292 22:0.02049844 26:0.05027964 28:0.024060789 32:0.01518136 38:0.02387546 45:0.020297339 46:0.033310652 52:0.029065089 63:0.04224946 67:0.013164 70:0.03183062 76:0.018521899 80:0.051556692 82:0.060892839 83:0.02333973 92:0.0379945 93:0.032100119 101:0.05553041 102:0.02274128 105:0.01399455 107:0.057824019 110:0.026221739 115:0.0349386 116:0.043094698 118:0.02453821 120:0.028597509 121:0.092327513 125:0.02729545 170:0.055097912 173:0.033979151 178:0.0349386 179:0.02112473 180:0.038931891 191:0.021701051 193:0.061379518 198:0.037763909 202:0.03615712 218:0.072537452 224:0.026108639 228:0.01958984 239:0.0099570798 246:0.01134068 268:0.01461159 289:0.02221461 307:0.02754895 314:0.060935289 315:0.02577615 323:0.01522321 334:0.027170859 344:0.01744527 345:0.061271992 350:0.090415388 357:0.02692581 368:0.0384501 372:0.05359019 378:0.03704381 382:0.032478049 389:0.0236932 401:0.085039243 406:0.046327628 410:0.064551711 440:0.02233435 441:0.064551711 444:0.02360318 455:0.029977489 462:0.027170859 471:0.041823968 482:0.033310652 485:0.03469079 486:0.026686089 487:0.01505677 488:0.067243628 491:0.02316381 507:0.017757369 511:0.050883289 512:0.064551711 536:0.02742148 541:0.025667511 547:0.0342113 548:0.036555149 589:0.03469079 615:0.04609324 640:0.0185786 643:0.05841215 690:0.035192091 699:0.03626873 710:0.028209429 712:0.04419829 716:0.094772801 719:0.055208791 721:0.030636 722:0.030806961 752:0.045649011 754:0.094009019 762:0.02767792 764:0.055208791 801:0.13119031 807:0.036849208 844:0.073698431 867:0.02577615 873:0.035192091 884:0.02794048 912:0.079008013 913:0.030467641 915:0.04419829 928:0.073698431 939:0.091402933 975:0.039535571 978:0.024249289 1010:0.03352901 1023:0.042091578 1030:0.062314078 1048:0.074302673 1049:0.050224882 1077:0.030467641 1091:0.25820684 1120:0.03030183 1164:0.13669401 1204:0.039161742 1215:0.033096541 1239:0.019282671 1255:0.027170859 1262:0.035192091 1271:0.067058027 1274:0.10407238 1289:0.04363269 1348:0.042581741 1354:0.049265429 1358:0.028485119 1404:0.051275838 1477:0.038110789 1489:0.033096541 1499:0.03746197 1501:0.04756565 1507:0.051275838 1521:0.034448441 1559:0.04609324 1560:0.065773003 1583:0.076665796 1587:0.04756565 1621:0.041622289 1627:0.025885871 1650:0.0384501 1680:0.041172151 1725:0.03626873 1798:0.038110789 1844:0.064551711 1853:0.035451561 1868:0.04419829 1952:0.055208791 2044:0.032886501 2053:0.03746197 2067:0.048382819 2082:0.045424748 2088:0.03352901 2180:0.041622289 2188:0.036849208 2193:0.064551711 2198:0.050224882 2201:0.05027964 2309:0.035717279 2458:0.088396579 2511:0.040323529 2565:0.043094698 2580:0.033310652 2586:0.046804879 2611:0.052437618 2613:0.042581741 2625:0.044794481 2739:0.050224882 2863:0.049265429 2896:0.040739682 2917:0.076665796 2954:0.061379518 3027:0.035717279 3156:0.05690857 3235:0.10487523 3245:0.32275853 3246:0.55218124 3247:0.20706797 3284:0.04609324 3372:0.049265429 3399:0.050224882 3484:0.064551711 3557:0.052437618 3633:0.053736381 3667:0.05690857 3716:0.069022663 4014:0.069022663 4026:0.064551711 4288:0.050224882 4617:0.064551711 4746:0.055208791 5232:0.043094698 5414:0.061379518 5980:0.069022663 6131:0.058918979 6839:0.064551711 7508:0.064551711 7509:0.064551711 #
-1.0000000029802323 10:0.00279491 54:0.25121883 83:0.091746308 86:0.10781231 92:0.01493529 95:0.037832301 115:0.054936148 128:0.038737088 131:0.10614011 132:0.054165449 134:0.04177478 136:0.054221392 152:0.065762468 175:0.07479047 188:0.032553062 191:0.0511829 192:0.057940342 198:0.059378572 229:0.031640962 252:0.083549567 255:0.0594064 257:0.061998729 260:0.039856061 275:0.077223577 283:0.047388609 287:0.079171419 289:0.01746471 290:0.072475299 341:0.02656519 343:0.02656519 344:0.0274303 363:0.042337149 399:0.082450971 412:0.053427551 422:0.031914782 434:0.035370819 443:0.057027601 459:0.035370819 467:0.066183239 470:0.046640091 482:0.10475288 488:0.035243802 505:0.07479047 507:0.055842061 517:0.089480922 544:0.057940342 563:0.068606429 580:0.092642017 582:0.048170909 591:0.29916188 614:0.089480922 615:0.072475299 624:0.092795193 641:0.045233529 652:0.068606429 659:0.064737573 662:0.063403219 670:0.10213458 678:0.13899152 722:0.048439719 802:0.048990179 806:0.052039769 809:0.045922551 859:0.051046211 890:0.04331696 893:0.070433177 905:0.055334751 947:0.06695395 951:0.047388609 959:0.040529471 1010:0.052719779 1121:0.077463128 1145:0.056160521 1169:0.04252873 1207:0.052039769 1253:0.071424194 1261:0.20086184 1294:0.10149872 1304:0.066183239 1316:0.064057559 1388:0.048990179 1421:0.063403219 1426:0.06949576 1505:0.071424194 1607:0.05747797 1650:0.060457509 1659:0.065445341 1713:0.057027601 1732:0.066183239 1793:0.082450971 1990:0.038430221 2039:0.08062423 2046:0.09651088 2055:0.092642017 2056:0.05454652 2083:0.10149872 2309:0.056160521 2449:0.08062423 2645:0.071424194 2811:0.57906526 2812:0.10149872 2908:0.10149872 3331:0.084493093 3514:0.064737573 3674:0.10852867 4093:0.089480922 7481:0.09651088 #
-0.75575338802045611 83:0.16689497 101:0.19854017 191:0.15517733 275:0.234128 294:0.39769834 471:0.29906994 2130:0.39769834 2262:0.66937375 #
-1.0000000029802323 10:0.0028269 38:0.22782409 43:0.073952891 76:0.11782629 82:0.048420899 83:0.03711867 107:0.09196125 136:0.054842152 180:0.061915878 198:0.04003891 201:0.203646 203:0.076234862 229:0.032003202 246:0.036071628 387:0.056147341 391:0.064985447 406:0.073677801 412:0.10807843 424:0.07286527 440:0.07103949 444:0.075075321 471:0.1330307 487:0.04789149 511:0.080922961 596:0.070037343 679:0.18101069 688:0.11627201 756:0.10205113 787:0.078993112 796:0.34531513 801:0.13909359 852:0.15365867 857:0.11816831 896:0.053276129 1008:0.12456287 1027:0.089726552 1057:0.064985447 1197:0.11034199 1569:0.099672392 2125:0.14661007 2816:0.17092082 4232:0.16309451 6104:0.62679976 6107:0.15669994 #
-0.90325604952722438 7:0.03646563 9:0.031580672 10:0.0013783 38:0.22215806 40:0.032649789 54:0.035396501 62:0.046572559 75:0.032984011 80:0.059966031 86:0.026583649 92:0.01473058 96:0.032000329 121:0.02863651 128:0.038206149 136:0.026739109 143:0.05036734 180:0.030188009 198:0.01952157 207:0.077974238 224:0.04048958 229:0.01560364 248:0.040842179 265:0.08967416 267:0.040315971 275:0.025388369 278:0.068543218 283:0.046739079 292:0.049459141 302:0.018478841 349:0.095188059 372:0.02770276 377:0.075032629 382:0.05036734 385:0.043959949 387:0.027375471 401:0.13187984 406:0.03592271 431:0.03402774 444:0.036604092 460:0.04483708 488:0.034760728 498:0.2882705 536:0.085051082 547:0.053055272 553:0.12583745 632:0.05539076 635:0.048879411 638:0.077889323 650:0.10200152 699:0.05624596 716:0.036743689 750:0.04483708 775:0.048879411 801:0.033908579 818:0.15989582 884:0.043330409 924:0.054183181 1020:0.065276109 1027:0.043747518 1030:0.048318699 1159:0.066036247 1363:0.05809645 1462:0.10073468 1560:0.30600455 1607:0.056690149 1643:0.059628852 1650:0.059628852 1682:0.071481921 1954:0.07376536 2020:0.077889323 2053:0.05809645 2177:0.054978691 2186:0.06946779 2188:0.11429237 2201:0.038987119 2414:0.05539076 2574:0.07376536 2587:0.13366351 2623:0.085618429 2644:0.054183181 2666:0.095188059 2792:0.071481921 2800:0.085618429 3300:0.070445217 3498:0.14517111 3535:0.21408227 3545:0.071481921 3619:0.07376536 3751:0.077889323 3757:0.059628852 4067:0.08333499 4254:0.088254459 4293:0.10704113 4498:0.085618429 4560:0.33018124 4780:0.095188059 5380:0.088254459 6635:0.23366795 7554:0.085618429 7595:0.095188059 7774:0.19037613 7778:0.088254459 7810:0.088254459 7811:0.26476339 7812:0.095188059 #
0.33989134703592844 4:0.11827332 10:0.0028723499 19:0.089034483 20:0.157382 24:0.1129168 25:0.098833509 27:0.10908118 52:0.093934432 75:0.068738103 95:0.077761211 111:0.091187991 126:0.15344618 198:0.040682599 239:0.032179918 280:0.06192949 287:0.16273043 289:0.0358973 344:0.056380749 378:0.059860282 382:0.10496466 386:0.19172981 397:0.079940557 400:0.080916971 409:0.078678951 437:0.19176269 459:0.072701827 490:0.094390057 530:0.1316651 587:0.066688128 596:0.071163312 653:0.09688317 868:0.1172156 978:0.1567408 1083:0.086245812 1163:0.10307199 1301:0.29944921 1644:0.13306281 1691:0.083305024 1741:0.14476965 1943:0.12902413 1998:0.12006807 2684:0.48185199 2749:0.12426549 4939:0.14284287 6267:0.3073884 6325:0.20862235 6327:0.20862235 #
0.87608747480825644 1:0.047981959 10:0.00087584002 12:0.056419209 15:0.02572923 18:0.022827201 20:0.047989309 22:0.040401109 25:0.01004552 26:0.02477449 35:0.029231369 37:0.036023941 43:0.02291243 52:0.01432136 67:0.064863488 75:0.020959791 76:0.05475824 79:0.041017439 80:0.01270187 82:0.04500597 83:0.01150028 86:0.01689266 93:0.015816821 96:0.020334709 101:0.12312777 102:0.02241081 103:0.02849186 111:0.01390264 120:0.01409097 121:0.01819716 134:0.13091035 136:0.01699145 159:0.035741668 186:0.02257546 188:0.02040242 189:0.033041772 191:0.01069285 192:0.036313731 198:0.037215129 201:0.021031519 202:0.03563169 212:0.054406501 228:0.096525811 233:0.046124719 239:0.049061909 246:0.03352765 250:0.035466559 257:0.097143233 268:0.01439926 275:0.04839937 279:0.029700501 280:0.0188837 281:0.034430869 282:0.025618911 287:0.099240333 289:0.01094589 294:0.02740431 295:0.19345301 298:0.15179636 309:0.03035927 323:0.21002784 326:0.02849186 341:0.049948659 342:0.099125318 344:0.03438352 345:0.030190799 348:0.046124719 363:0.026534529 378:0.036505491 387:0.01739583 391:0.04026819 406:0.022827201 419:0.02606708 422:0.02000238 437:0.01949092 440:0.044019569 461:0.03106058 469:0.02529452 470:0.029231369 471:0.041216191 475:0.020334709 487:0.029675931 491:0.022827201 506:0.063613653 511:0.10028772 516:0.030530401 537:0.03106058 549:0.028209601 553:0.026654599 584:0.0277995 587:0.040669419 612:0.043556008 619:0.030530401 647:0.032826591 659:0.040573839 665:0.045423418 676:0.039342359 688:0.036023941 721:0.060381591 722:0.03035927 738:0.048549511 740:0.14186624 748:0.061408538 771:0.022827201 790:0.027022989 801:0.02154731 807:0.036313731 813:0.047679719 852:0.071410872 857:0.03661146 859:0.031992871 867:0.025401579 879:0.027022989 890:0.054297231 895:0.035198241 896:0.033012521 906:0.04687443 914:0.063620582 956:0.047679719 978:0.023896899 987:0.040147651 1001:0.030530401 1014:0.039737549 1016:0.047679719 1023:0.041479912 1048:0.03661146 1054:0.063613653 1073:0.06401217 1106:0.040573839 1113:0.05168137 1164:0.23092732 1165:0.041479912 1169:0.079963803 1196:0.30987784 1230:0.029231369 1234:0.10710406 1239:0.057007369 1242:0.036313731 1255:0.02677601 1311:0.044143531 1329:0.044143531 1336:0.044143531 1344:0.029700501 1349:0.039737549 1351:0.042468451 1358:0.028071171 1359:0.049495019 1367:0.048549511 1386:0.0277995 1391:0.045423418 1393:0.074465141 1411:0.049495019 1443:0.040573839 1445:0.13429391 1457:0.035466559 1465:0.055068899 1472:0.03348536 1492:0.036917578 1508:0.04687443 1515:0.037556961 1547:0.03142897 1564:0.03789134 1593:0.02572923 1596:0.026898799 1627:0.22958732 1633:0.043556008 1639:0.028209601 1686:0.03088096 1691:0.050803151 1701:0.044143531 1739:0.036313731 1778:0.041479912 1785:0.042998631 1786:0.04196294 1792:0.04687443 1847:0.050530698 1853:0.03493638 1859:0.34430873 1897:0.054406501 1956:0.038592651 1970:0.082959823 1990:0.04817177 1998:0.073222913 2006:0.063613653 2020:0.098990031 2044:0.032408599 2056:0.034186669 2071:0.03789134 2084:0.045423418 2120:0.042468451 2130:0.02740431 2204:0.033041772 2309:0.035198241 2321:0.063613653 2356:0.042468451 2364:0.044764642 2368:0.039737549 2448:0.05295549 2456:0.04196294 2458:0.043556008 2518:0.054406501 2520:0.050530698 2583:0.082034871 2619:0.039342359 2622:0.039342359 2644:0.034430869 2726:0.03661146 2768:0.051675599 2789:0.046124719 2877:0.058062769 2888:0.043556008 3034:0.048549511 3115:0.047679719 3116:0.090846829 3181:0.048549511 3293:0.042468451 3331:0.05295549 3373:0.044143531 3425:0.098990031 3427:0.097099021 3449:0.063613653 3468:0.058062769 3498:0.046124719 3627:0.050530698 3672:0.048549511 3752:0.063613653 4036:0.058062769 4160:0.04687443 4239:0.054406501 4286:0.046124719 4507:0.050530698 4585:0.058062769 4695:0.060487561 4830:0.060487561 4871:0.051675599 4873:0.054406501 4950:0.049495019 5142:0.075551704 5230:0.063613653 5232:0.042468451 5648:0.068019629 5697:0.060487561 5827:0.056081582 6454:0.063613653 6455:0.063613653 #
0.48968329979181013 3:0.05482094 4:0.037254728 10:0.0018095101 12:0.058281679 14:0.30769336 17:0.082127199 22:0.041734811 26:0.051184662 27:0.06871862 29:0.095030151 39:0.3982076 40:0.085729264 54:0.046470679 55:0.060078681 62:0.030571651 67:0.02680189 75:0.043303411 76:0.037710588 80:0.052484699 83:0.04751968 86:0.2443044 87:0.17298961 89:0.073274717 111:0.02872316 117:0.061034162 126:0.032222521 145:0.074426278 191:0.044183329 198:0.025629099 201:0.0434516 202:0.036807939 203:0.048798312 207:0.051184662 219:0.086696401 223:0.053157192 242:0.040659141 248:0.0536201 257:0.040140029 275:0.033331402 287:0.025629099 292:0.064932972 294:0.056617931 297:0.075640112 341:0.034398358 359:0.08998771 406:0.04716152 418:0.057158928 459:0.04580047 504:0.072720356 507:0.036153998 515:0.098507397 533:0.04787429 535:0.050975818 653:0.061034162 700:0.066537254 714:0.067820482 728:0.059463561 729:0.058571368 762:0.056352239 832:0.059162211 839:0.22152935 844:0.075024992 849:0.06532342 859:0.066098012 877:0.21262875 1009:0.059769008 1048:0.075640112 1100:0.053157192 1136:0.064171873 1137:0.085698441 1209:0.064549193 1437:0.092484772 1458:0.11240508 1483:0.093845822 1492:0.076272547 1548:0.066537254 1701:0.091201536 1747:0.11240508 1779:0.087740786 1782:0.088836148 1820:0.092484772 2199:0.20060879 2306:0.41049343 2314:0.0669569 5450:0.10225783 6466:0.13142726 6467:0.12496868 #
0.51328754635782003 4:0.054690119 10:0.00132819 17:0.24112624 25:0.01523369 41:0.21372864 48:0.042156979 52:0.02171785 54:0.10232877 56:0.11807183 58:0.16656005 70:0.14270577 75:0.03178481 76:0.027679659 83:0.052319329 84:0.038684592 87:0.076184869 92:0.01419502 102:0.03398522 105:0.041827708 122:0.036097381 131:0.05043963 132:0.051480729 145:0.054629061 180:0.02909046 191:0.064861342 203:0.03581807 239:0.029760281 246:0.033895679 252:0.039704211 257:0.02946288 268:0.021835979 274:0.10756763 286:0.047102299 287:0.03762364 320:0.033617649 335:0.055068519 343:0.025248479 362:0.033022691 371:0.056953851 409:0.036381502 413:0.066051193 455:0.044799209 458:0.028907361 460:0.04320693 461:0.047102299 466:0.049780391 467:0.18870857 480:0.036381502 497:0.046561971 511:0.019010359 535:0.037416369 541:0.038358271 596:0.032906242 607:0.11605376 610:0.06694214 613:0.22393695 634:0.082505591 640:0.027764389 664:0.088050202 681:0.044799209 697:0.056461912 710:0.042156979 718:0.05852443 758:0.067884043 762:0.04136268 763:0.066051193 783:0.080305181 809:0.043646391 845:0.040238701 867:0.11556185 879:0.081958868 951:0.04503978 977:0.04629831 992:0.060882539 1008:0.05852443 1076:0.19658609 1140:0.047379259 1190:0.053376921 1192:0.05552002 1204:0.05852443 1224:0.083115391 1301:0.034616672 1313:0.042778891 1329:0.06694214 1337:0.041954789 1403:0.037724391 1474:0.075057492 1481:0.088050202 1663:0.33812696 1667:0.2441925 1668:0.13734992 1672:0.14130691 1674:0.053783819 1678:0.077369168 1782:0.065205939 1797:0.14460933 1811:0.11816616 1820:0.067884043 1990:0.073050842 2090:0.069946557 2123:0.073623657 2199:0.073623657 2209:0.12727071 2218:0.048536129 2247:0.072304659 2265:0.051842909 2271:0.060260631 2327:0.10925812 2365:0.056953851 2372:0.13776609 2613:0.12727071 2622:0.05966134 2824:0.064401947 3019:0.078364268 3052:0.061528839 3175:0.14213778 3304:0.066051193 3347:0.088050202 3393:0.057984099 3422:0.078364268 3510:0.096467912 3635:0.05966134 3740:0.078364268 4040:0.085045792 4237:0.075057492 4856:0.076628067 6446:0.091727301 #
0.66906792680982452 7:0.058759671 9:0.02544409 10:0.0022209501 12:0.035766721 20:0.020281751 25:0.038209889 26:0.031411368 32:0.094843052 43:0.05810095 50:0.042171732 62:0.018761421 67:0.01644798 68:0.036124598 80:0.03220918 82:0.095104478 83:0.029162209 92:0.01186822 93:0.020054011 105:0.01748573 107:0.036124598 111:0.017627031 136:0.02154332 159:0.04531657 181:0.045725491 209:0.04531657 221:0.039381448 223:0.032621879 228:0.02447685 229:0.02514326 239:0.024882071 246:0.05667923 265:0.036124598 267:0.032482009 268:0.036513388 287:0.01572825 289:0.01387821 295:0.030659679 298:0.03849227 323:0.20922986 341:0.021109831 343:0.042219661 344:0.02179729 345:0.076557323 387:0.04411206 389:0.029603859 398:0.031803168 432:0.035591211 437:0.049424749 440:0.027906019 471:0.052257668 507:0.02218724 509:0.033050232 511:0.11125971 587:0.025782211 596:0.027512349 612:0.055224299 653:0.037455872 691:0.02503279 721:0.038278662 771:0.028942419 819:0.061319359 832:0.036307082 852:0.03018041 859:0.020281751 891:0.03234354 907:0.092083737 912:0.032905959 928:0.046041869 959:0.03220645 969:0.056756709 1003:0.05200566 1009:0.036679469 1057:0.02552785 1069:0.064964011 1083:0.10003014 1087:0.033343378 1094:0.03849227 1136:0.039381448 1158:0.051443242 1164:0.048798472 1179:0.04058025 1234:0.13579634 1239:0.024093051 1242:0.046041869 1251:0.074911751 1259:0.040088139 1267:0.033949081 1279:0.036679469 1343:0.17829511 1347:0.1188634 1407:0.04162056 1428:0.055969208 1512:0.056756709 1593:0.065243758 1627:0.03234354 1632:0.046807479 1635:0.062754311 1639:0.35766718 1645:0.039381448 1686:0.078307427 1691:0.45089024 1750:0.055224299 1953:0.52592027 1956:0.048931301 1964:0.052592032 2204:0.041893389 2335:0.050382901 2425:0.051443242 2651:0.080664001 2789:0.058481149 2927:0.076691672 3000:0.067141823 3381:0.049881849 3670:0.12311103 5658:0.13103811 5713:0.073617302 5824:0.09579137 6564:0.073617302 #
-1.0000000029802323 10:0.00092766999 11:0.032898478 17:0.0140345 18:0.04835584 45:0.021185949 46:0.034768991 50:0.03522943 53:0.28765267 62:0.01567292 76:0.019332791 82:0.03177936 84:0.027019151 92:0.0099144699 93:0.016752729 111:0.11780221 118:0.02561249 120:0.01492475 121:0.038547829 125:0.028490441 126:0.01651926 128:0.0257148 152:0.02182751 173:0.035466749 179:0.1763965 188:0.02160966 191:0.022651119 211:0.044445962 222:0.065042183 228:0.02044748 240:0.035466749 246:0.02367435 257:0.041156542 282:0.027134821 295:0.02561249 298:0.096467033 302:0.01243726 323:0.047669038 326:0.060355552 343:0.017634731 344:0.01820902 352:0.03877781 362:0.023064621 363:0.02810462 372:0.01864545 380:0.04087624 387:0.01842517 391:0.02132546 412:0.035466749 414:0.029303219 436:0.044981379 456:0.039435681 466:0.034768991 480:0.025410561 486:0.0278544 490:0.03048471 509:0.02760951 511:0.026555469 540:0.054739442 545:0.043934342 548:0.03815553 573:0.053520679 585:0.02823179 596:0.022983279 618:0.046755571 619:0.032336932 626:0.02748899 640:0.07756786 643:0.03048471 662:0.042088881 666:0.050501011 673:0.03620955 710:0.029444439 716:0.024730479 718:0.04087624 722:0.032155681 740:0.075130343 775:0.032898478 798:0.045542929 819:0.02561249 859:0.067771882 882:0.040498842 885:0.043934342 910:0.048111189 913:0.063603021 939:0.063603021 958:0.0345455 1001:0.064673871 1013:0.081752479 1071:0.048111189 1092:0.050501011 1125:0.043444499 1141:0.044445962 1164:0.18344373 1178:0.086888999 1202:0.048111189 1205:0.31022251 1214:0.039435681 1219:0.04613328 1224:0.029025869 1230:0.030961029 1308:0.046755571 1348:0.044445962 1360:0.067377768 1361:0.039102051 1396:0.034111131 1407:0.10430697 1434:0.02365068 1435:0.04126643 1462:0.033899941 1467:0.040133432 1536:0.053520679 1589:0.044445962 1593:0.02725167 1595:0.039435681 1610:0.03595658 1625:0.044445962 1636:0.050501011 1639:0.08963643 1645:0.032898478 1662:0.057625819 1680:0.042974658 1726:0.059400011 1810:0.043934342 1868:0.04613328 1901:0.03815553 1960:0.053520679 2076:0.053520679 2201:0.052480869 2279:0.046755571 2317:0.087868683 2371:0.050501011 2498:0.054733321 2542:0.064066701 2559:0.050501011 2778:0.080022208 2870:0.059400011 2896:0.04252325 2902:0.040133432 2961:0.054733321 3038:0.057625819 3181:0.051422261 3477:0.064066701 3516:0.051422261 3759:0.080022208 3876:0.041670311 4040:0.29700005 4360:0.049648061 5181:0.067377768 5182:0.57660031 5537:0.072044462 5691:0.05608895 7576:0.061498441 8025:0.05608895 8026:0.11217789 #
-1.0000000029802323 10:0.0026537001 17:0.12044151 36:0.089988701 41:0.06100373 45:0.12120928 52:0.13017567 55:0.088106811 76:0.05530348 80:0.26939523 92:0.028361389 93:0.047922939 98:0.11280991 102:0.13580377 105:0.04178552 108:0.19515695 110:0.078293972 114:0.34137836 139:0.073267229 198:0.075171366 229:0.030042339 244:0.12427758 280:0.05721518 282:0.077622034 286:0.09410958 372:0.10667457 385:0.16927584 487:0.044957131 539:0.098821029 587:0.06161157 673:0.10358123 722:0.091984712 849:0.095798358 867:0.076963522 869:0.17621362 877:0.15591256 879:0.081876203 1025:0.084228918 1077:0.090971582 1262:0.10507804 1344:0.089988701 1477:0.34137836 1529:0.098193891 1593:0.4677377 1659:0.12427758 1683:0.14996354 1714:0.13028035 1739:0.11002594 2483:0.13374923 #
-0.63703263440007363 10:0.00177538 21:0.062961318 62:0.11997975 96:0.041219462 101:0.05546356 109:0.1056785 110:0.052380338 120:0.02856308 136:0.034442499 138:0.14842644 192:0.07360971 208:0.092075489 223:0.052154422 224:0.052154422 227:0.0894811 229:0.040197931 280:0.076556347 287:0.07543689 297:0.074213222 302:0.1190125 332:0.31298614 384:0.070299461 424:0.045761559 432:0.056901649 435:0.083144359 483:0.071348548 486:0.053307928 487:0.060154561 550:0.085060947 587:0.16487785 641:0.11493294 650:0.065693811 716:0.094658703 752:0.045594051 753:0.047510639 852:0.048251111 859:0.03242556 876:0.074833743 896:0.23421296 967:0.06611339 978:0.048440188 986:0.052380338 1035:0.078975938 1057:0.081625588 1060:0.070299461 1073:0.064877912 1100:0.10430884 1127:0.14966747 1130:0.061198231 1140:0.25332612 1217:0.073022291 1270:0.05662458 1378:0.1932983 1398:0.080549963 1532:0.067876481 1737:0.10734337 1749:0.066541113 1888:0.093497083 1943:0.079748899 2007:0.057754409 2126:0.10474898 2210:0.08829017 2255:0.074833743 2314:0.065693811 2397:0.078229196 2418:0.1348446 2422:0.081381261 2622:0.079748899 2625:0.0894811 2862:0.069793068 2898:0.11368011 3029:0.10032883 3116:0.18415099 3147:0.070299461 3178:0.10474898 3258:0.10734337 3286:0.12894799 3320:0.09664914 3833:0.082245179 3926:0.10242821 4064:0.087160327 4524:0.12894799 4534:0.10032883 4546:0.08829017 4547:0.08829017 6358:0.18415099 6462:0.12261125 6862:0.12894799 7585:0.10734337 7638:0.20485643 7695:0.092075489 7967:0.12261125 #
-0.76451986669662697 302:0.12781842 432:0.30555946 832:0.31170544 896:0.1796734 967:0.3550261 3926:0.55003518 4536:0.57642937 #
-0.86532880876189899 7:0.083628871 10:0.00316094 17:0.047821108 62:0.053403862 80:0.1375238 84:0.092064962 87:0.060437139 95:0.085573927 101:0.049374469 140:0.2036179 200:0.13323618 211:0.30289 302:0.042378671 335:0.13105687 372:0.1270649 402:0.11847173 418:0.099847682 466:0.11847173 471:0.14874998 507:0.063155361 511:0.045242518 702:0.099847682 792:0.151445 896:0.17871413 1057:0.072664298 1100:0.092857257 1207:0.11771021 1487:0.12899233 1593:0.092857257 1605:0.10956715 1613:0.1134277 1668:0.10895912 1744:0.19635403 2332:0.49180171 3757:0.13675053 4839:0.49096808 #
1.0000000029802323 10:0.0020922599 17:0.063306518 26:0.059182391 29:0.054939419 32:0.0357389 36:0.070949852 38:0.16861778 45:0.09556511 52:0.03421149 76:0.087205917 80:0.15171389 82:0.14334963 84:0.06093869 92:0.02236099 93:0.075567827 107:0.068062611 160:0.054328609 168:0.067388333 179:0.049730338 198:0.11853483 204:0.12344494 228:0.046117019 287:0.02963371 289:0.026148031 295:0.057766128 348:0.11018476 402:0.078417592 418:0.066090152 444:0.055564951 479:0.15196307 511:0.029946459 516:0.072932363 541:0.060424648 663:0.074635163 673:0.081666619 681:0.070570894 731:0.086747818 779:0.065157413 796:0.20446046 801:0.20589267 818:0.060680401 859:0.038212989 879:0.0645537 912:0.06199836 969:0.10693573 977:0.072932363 1078:0.13870288 1086:0.12650239 1122:0.088190317 1153:0.21387146 1180:0.067388333 1181:0.10271701 1197:0.081666619 1234:0.063963719 1239:0.045393899 1351:0.1014505 1374:0.10850944 1507:0.12070995 1514:0.14449532 1526:0.13870288 1593:0.061463121 1656:0.208097 1790:0.10850944 1876:0.12650239 2417:0.11597719 3005:0.13870288 3017:0.15196307 3215:0.12996864 3374:0.45588923 4019:0.15196307 4031:0.15196307 4360:0.1119757 6799:0.15196307 #
0.91113177092505993 10:0.00166958 40:0.15819949 53:0.38827956 54:0.085754141 62:0.02820752 66:0.5661009 70:0.059795551 82:0.05719525 83:0.17537977 86:0.25761387 95:0.045199499 105:0.052579042 111:0.02650198 128:0.046280488 136:0.19434027 140:0.053774718 180:0.03656783 198:0.02364718 201:0.040091451 209:0.068132773 242:0.037514929 246:0.063912258 248:0.04947361 268:0.027448669 287:0.04729436 406:0.043514479 413:0.08302889 431:0.041219041 437:0.037154678 466:0.062575869 509:0.049690519 533:0.088344269 536:0.051512729 548:0.068670832 592:0.078189723 643:0.054865189 648:0.060271911 728:0.16459557 787:0.046653729 796:0.16315588 889:0.084148847 951:0.056616738 986:0.049258951 1166:0.07097479 1215:0.062173638 1287:0.080955729 1323:0.07159318 1351:0.080955729 1358:0.053510841 1446:0.074269712 1492:0.07037434 1635:0.094350152 1642:0.16829769 1714:0.081966378 2079:0.10690583 2244:0.1296628 2247:0.090889752 2281:0.11530475 2288:0.074996598 2359:0.081966378 2512:0.07159318 3578:0.089354649 3618:0.092547767 4362:0.1296628 5176:0.12126388 6569:0.098506898 #
0.93105973973626166 7:0.064880729 8:0.06229477 10:0.0024523099 40:0.11618296 44:0.1446885 53:0.095051862 54:0.062978521 66:0.138583 80:0.035564449 83:0.064400136 86:0.14189525 100:0.079377741 101:0.076611146 118:0.067707062 128:0.067977518 229:0.02776246 234:0.084532373 239:0.027474061 242:0.055102531 265:0.079775468 275:0.045171749 289:0.061295658 297:0.10250983 315:0.071122847 323:0.042004649 330:0.090742067 387:0.097414508 391:0.056374218 469:0.21246926 471:0.057701401 475:0.05693594 487:0.041545391 507:0.048997018 511:0.070199862 680:0.063443042 721:0.084532373 733:0.070232287 787:0.13705146 793:0.074971192 796:0.059911478 832:0.080178462 854:0.08747907 877:0.072040267 1003:0.1148463 1042:0.12533823 1048:0.10250983 1164:0.053881861 1377:0.077094764 1393:0.1042489 1435:0.10908852 1482:0.096404321 1541:0.098552898 1544:0.1446885 1666:0.093756959 2007:0.079775468 2292:0.099304177 2474:0.13593563 2617:0.67744577 2639:0.11890905 2683:0.12914638 2710:0.13593563 3642:0.11890905 4835:0.12359916 #
1.0000000029802323 1:0.03556668 10:0.00129844 15:0.076287299 17:0.019643821 20:0.023714749 26:0.036728241 29:0.068190157 32:0.02217935 40:0.061516169 45:0.14826785 50:0.049309961 52:0.02123145 55:0.08622051 62:0.065811276 63:0.030862359 72:0.03183246 75:0.031072941 76:0.027059739 80:0.22596659 84:0.03781819 87:0.024826201 89:0.10515851 99:0.031072941 101:0.020281911 121:0.053954668 122:0.03528893 137:0.046873689 152:0.030551551 179:0.092587069 188:0.03024663 191:0.047556508 198:0.018390501 202:0.026412031 213:0.04866549 215:0.038987279 218:0.05298711 228:0.028619951 265:0.04223926 266:0.048045821 268:0.042693861 275:0.071752183 278:0.06457188 283:0.04403105 285:0.066363677 289:0.048681941 315:0.037657902 323:0.066721447 326:0.084478512 333:0.14394951 334:0.039695501 335:0.05383518 337:0.050327752 339:0.09796901 341:0.049366008 345:0.08951585 372:0.10439074 377:0.070685297 387:0.02578936 400:0.03657838 405:0.04451197 455:0.043795869 459:0.032864738 462:0.039695501 471:0.1833093 487:0.02199732 497:0.045519151 503:0.096091628 511:0.0185846 516:0.045261391 536:0.040061649 541:0.037499178 553:0.03951551 584:0.04121282 585:0.11854652 596:0.03216926 626:0.07695163 640:0.02714256 647:0.04866549 653:0.087591752 700:0.047744691 714:0.04866549 717:0.037186362 767:0.098619923 793:0.039695501 828:0.089672938 859:0.07114426 869:0.043110259 877:0.03814365 886:0.031179279 912:0.07695163 1069:0.075960197 1077:0.089023948 1096:0.06149406 1107:0.06457188 1189:0.073376469 1195:0.035015881 1198:0.11200557 1238:0.083141074 1262:0.051414199 1265:0.28274122 1267:0.039695501 1271:0.048984502 1280:0.19909105 1368:0.073376469 1413:0.05257925 1434:0.066206813 1451:0.067340322 1456:0.048984502 1463:0.16628215 1465:0.081639767 1472:0.049642131 1479:0.18887874 1485:0.056685459 1487:0.05298711 1505:0.066363677 1528:0.16131553 1538:0.083141074 1593:0.076287299 1599:0.06457188 1651:0.17855696 1660:0.066363677 1666:0.24821065 1680:0.12030164 1727:0.083141074 1730:0.06457188 1755:0.083141074 1761:0.069491453 1779:0.062959582 1903:0.080657773 1998:0.054276571 2015:0.063745573 2088:0.048984502 2229:0.058325142 2314:0.048045821 2457:0.073376469 2562:0.070685297 2712:0.067340322 2930:0.14982376 3102:0.076609202 3216:0.05298711 3265:0.060808439 3367:0.083141074 3371:0.13898291 3443:0.083141074 3942:0.094307378 4276:0.068380013 4337:0.078506634 4841:0.086078189 6297:0.069491453 6390:0.094307378 6818:0.094307378 #
0.60493988547533317 1:0.03816887 3:0.084431149 7:0.036866222 9:0.031927601 10:0.0013934399 25:0.063928388 27:0.10583532 28:0.03772366 29:0.0365896 32:0.02380207 39:0.08761283 48:0.044228099 52:0.02278482 67:0.082556568 83:0.21955885 87:0.02664258 90:0.043806419 92:0.05956959 95:0.03772366 101:0.02176581 108:0.10247574 111:0.022118639 126:0.099253461 152:0.065573633 168:0.13464169 229:0.031550098 239:0.03122236 257:0.061820701 275:0.02566728 283:0.047252528 289:0.017414561 303:0.044228099 323:0.02386768 326:0.04532963 344:0.02735153 363:0.042215571 378:0.02903953 391:0.12813076 397:0.11634273 398:0.079814114 406:0.036317341 419:0.04147188 430:0.06599319 437:0.12403769 458:0.03032754 480:0.03816887 507:0.027840851 509:0.04147188 511:0.039888632 520:0.063221149 533:0.036866222 534:0.041290849 547:0.053638112 548:0.057312921 617:0.038625859 619:0.048572879 624:0.046264362 644:0.084250472 650:0.051561031 689:0.057773959 690:0.055175848 711:0.054009911 716:0.074294657 718:0.061399661 728:0.22895341 762:0.04339477 778:0.06676168 784:0.07874497 807:0.057773959 816:0.069296204 830:0.10120726 831:0.061985761 838:0.046264362 849:0.05030315 854:0.04970694 856:0.061985761 859:0.025449811 905:0.055175848 912:0.082581699 953:0.061985761 959:0.040413089 987:0.063873619 1025:0.044228099 1132:0.0745757 1204:0.061399661 1217:0.057312921 1257:0.21167064 1267:0.042599771 1350:0.070230924 1357:0.063873619 1388:0.097699001 1398:0.063221149 1426:0.069296204 1472:0.053274129 1475:0.06599319 1548:0.05123787 1563:0.077240691 1564:0.060283899 1713:0.056863852 1945:0.058247641 2063:0.12020031 2084:0.072267182 2088:0.052568391 2219:0.18475197 2227:0.12020031 2279:0.070230924 2320:0.18966345 2322:0.10821703 2331:0.10821703 2364:0.071219087 2400:0.08655899 2416:0.056863852 2446:0.077240691 2450:0.07874497 2451:0.05873467 2479:0.096233748 2558:0.10120726 2565:0.067565933 2619:0.062592417 2625:0.070230924 2651:0.050609142 2671:0.069296204 2672:0.082214206 2789:0.073382936 2798:0.18966345 2877:0.092375986 3115:0.075856902 3235:0.082214206 3264:0.08655899 3335:0.08655899 3949:0.096233748 4000:0.096233748 4070:0.062592417 4797:0.080392711 4878:0.08655899 5541:0.10821703 5615:0.089223981 5707:0.089223981 6034:0.28870124 6038:0.10120726 6039:0.092375986 6048:0.10821703 6049:0.10120726 6051:0.10821703 #
-1.0000000029802323 8:0.10169836 10:0.00200174 12:0.064472988 25:0.02295902 28:0.10838354 45:0.091430791 54:0.2056292 62:0.033819292 68:0.065118097 72:0.098148949 80:0.087090291 82:0.034287021 83:0.078851588 86:0.11582444 92:0.02139361 99:0.095807128 118:0.11053412 139:0.055267058 140:0.064472988 181:0.041212332 191:0.04887696 229:0.022661589 246:0.02554246 268:0.19745684 280:0.04315865 292:0.14366169 303:0.063535698 345:0.069001012 365:0.076018646 378:0.04171662 434:0.050665889 455:0.067517862 472:0.6408717 503:0.074069783 507:0.039994668 536:0.061760992 568:0.09954717 584:0.063535698 648:0.072262779 733:0.05732831 818:0.058055252 870:0.10541796 875:0.21083592 1087:0.06010469 1094:0.069386058 1135:0.12817433 1186:0.071830846 1267:0.061196528 1421:0.090820089 1713:0.081687532 1887:0.21426284 1901:0.082332641 2267:0.13270235 2360:0.14538887 2361:0.08820343 2363:0.11810448 2366:0.15545873 2367:0.091757379 2368:0.18164018 2370:0.13270235 2371:0.10897192 #
-1.0000000029802323 10:0.00325868 20:0.11903314 29:0.085567921 54:0.083687112 63:0.15490961 67:0.048266411 72:0.079889446 75:0.077983312 83:0.042788099 86:0.12570217 99:0.23394993 100:0.10547874 101:0.050901212 122:0.088564098 134:0.097413383 153:0.11359185 201:0.15650035 257:0.072286502 268:0.10714817 275:0.060025129 281:0.128104 297:0.13621712 302:0.043689091 315:0.094509467 339:0.1229357 372:0.065496981 378:0.067911431 462:0.099623218 471:0.15334956 487:0.05520634 503:0.12057988 504:0.13095906 511:0.046641491 557:0.14937393 643:0.10708544 650:0.12057988 680:0.084304377 688:0.13403118 748:0.11423874 787:0.091058373 796:0.079611577 896:0.24565369 1087:0.0978458 1183:0.2324879 1195:0.087878831 1434:0.083079129 1492:0.13735606 1596:0.10008006 1827:0.1620551 2218:0.11908231 2239:0.11624395 2240:0.10933213 2262:0.17161231 2292:0.1319574 3599:0.13298099 4562:0.25307482 4835:0.16424105 5072:0.37601051 #
-0.81662707556754088 10:0.0042565502 18:0.11093871 30:0.1779293 78:0.16384852 186:0.10971525 252:0.12724315 260:0.2427977 330:0.3150073 440:0.10696613 586:0.32996854 771:0.11093871 790:0.13132997 978:0.11613737 1083:0.12780797 1386:0.13510375 1506:0.2455759 2130:0.2663663 2255:0.358834 2854:0.25736022 3140:0.33057097 4681:0.33057097 #
-0.76772984535216049 1:0.05346106 7:0.20654598 10:0.00195172 19:0.06049747 31:0.079033017 33:0.11029377 41:0.044866439 60:0.10445411 75:0.046706408 95:0.052837469 128:0.054101132 154:0.13236807 180:0.042747188 260:0.05566391 279:0.066184029 280:0.042080078 302:0.026166631 350:0.13236807 368:0.084436372 378:0.040674079 405:0.066906907 434:0.049399711 436:0.094635911 487:0.06612929 502:0.071766093 612:0.097059399 617:0.054101132 670:0.14264354 754:0.13762914 776:0.077851579 793:0.05966717 854:0.069621801 879:0.06021753 896:0.11034672 911:0.19950537 1023:0.27729917 1027:0.06194789 1113:0.057582911 1140:0.069621801 1145:0.15687019 1169:0.11879323 1191:0.077851579 1336:0.098368622 1403:0.05543438 1830:0.21637364 2007:0.25396296 2069:0.12497115 2387:0.42602575 2578:0.11800502 2615:0.1012207 2631:0.11029377 3147:0.15456361 3303:0.27729917 3415:0.12123844 3528:0.21249723 3697:0.11800502 4238:0.13478935 5307:0.10818682 5385:0.11515295 #
-0.68499702664402207 5:0.18633494 10:0.00129817 43:0.13584238 74:0.04577148 101:0.020277649 133:0.042659909 157:0.076593108 214:0.049970791 218:0.05297599 229:0.01469649 294:0.04061842 302:0.01740454 320:0.032857839 344:0.02548147 346:0.056162208 357:0.039329238 369:0.08064083 418:0.082013078 424:0.033461139 426:0.034087919 429:0.080478869 458:0.056508008 549:0.041812021 557:0.059506491 570:0.070670463 592:0.060795669 624:0.086202398 771:0.033834271 819:0.035841789 896:0.07339628 905:0.0514034 936:0.094287582 967:0.096685037 971:0.12027637 1057:0.02984257 1069:0.037972119 1127:0.10943779 1140:0.13892522 1204:0.28600839 1231:0.0496317 1239:0.02816527 1270:0.04140424 1353:0.047148921 1403:0.11061527 1429:0.052568208 1546:0.068365641 1564:0.056162208 1732:0.061481152 1810:0.061481152 1848:0.053823881 1887:0.20843057 1965:0.05667356 2007:0.21115191 2102:0.049299609 2364:0.066349737 2608:0.062197089 2625:0.065429144 2644:0.10206625 2656:0.086060122 2742:0.076593108 2806:0.056162208 3551:0.08064083 3742:0.35861644 3746:0.30245423 4272:0.076593108 4310:0.15698028 4323:0.086060122 4619:0.10081808 5494:0.10081808 5870:0.094287582 6099:0.094287582 6313:0.073361062 7153:0.13895372 7585:0.15698028 7695:0.067326173 7944:0.2995846 8186:0.094287582 8379:0.094287582 8473:0.28286272 #
0.83416422820958636 10:0.0024459001 110:0.072163321 121:0.05081784 126:0.087109752 176:0.089937791 189:0.09227325 198:0.069285236 224:0.071852081 228:0.053912058 239:0.027402289 287:0.034642618 289:0.030567771 302:0.032792222 332:0.086238921 336:0.1250108 337:0.094803549 344:0.048010118 366:0.1519369 432:0.15678447 437:0.054430809 471:0.057550669 482:0.091672324 683:0.10986842 849:0.088297069 859:0.044672031 1039:0.21098749 1164:0.053741101 1215:0.091083057 1230:0.081632219 1239:0.053066719 1255:0.074775338 1462:0.089380972 1627:0.28495604 1639:0.078778818 1686:0.17247786 1691:0.21281117 1780:0.13090266 1792:0.13090266 1798:0.10488248 1849:0.11718673 1951:0.16214751 1955:0.16214751 1963:0.57724208 2888:0.24327111 3514:0.226615 6215:0.18995325 #
0.74015501886202095 2:0.21744683 4:0.050788868 9:0.08478488 10:0.00246689 15:0.036234241 17:0.22392581 19:0.038233139 20:0.06758289 25:0.01414701 27:0.04684158 31:0.049947221 32:0.02106908 36:0.04182693 37:0.050732169 48:0.039149769 52:0.02016864 75:0.029517479 76:0.02570517 80:0.071551681 83:0.016195729 84:0.035925072 86:0.02378978 90:0.11632951 94:0.048488669 101:0.01926663 104:0.037708409 105:0.05826598 111:0.039157901 117:0.041603521 120:0.01984418 126:0.065892778 151:0.11081095 158:0.18335347 161:0.10146434 181:0.050788868 191:0.01505864 203:0.099789113 215:0.037035629 223:0.036234241 229:0.01396374 239:0.01381868 247:0.21832277 265:0.040124819 280:0.02659373 289:0.03083 299:0.04780842 341:0.023447409 343:0.093789637 357:0.074736647 362:0.1533353 378:0.05141034 380:0.054349661 381:0.041603521 389:0.065764047 395:0.04780842 397:0.034328029 400:0.17373662 404:0.051140279 407:0.18491749 424:0.063585602 431:0.060903039 437:0.054897752 440:0.03099617 463:0.12433382 464:0.049200568 466:0.04622937 469:0.03562203 470:0.041166261 475:0.02863718 509:0.03671002 535:0.034747321 539:0.091864429 540:0.14556476 541:0.03562203 607:0.035925072 689:0.051140279 691:0.055609562 708:0.03446652 722:0.04275468 748:0.043240529 750:0.040124819 786:0.062166911 809:0.040532932 818:0.0357728 845:0.03736832 854:0.087999038 876:0.051990669 882:0.053847879 884:0.038776498 895:0.049569339 943:0.049947221 983:0.078979157 1006:0.055405471 1012:0.057139762 1015:0.049200568 1116:0.078979157 1159:0.05909602 1180:0.039727319 1195:0.033263039 1203:0.08176925 1217:0.050732169 1250:0.11192403 1363:0.051990669 1416:0.059807919 1471:0.063969374 1613:0.088522241 1665:0.10672404 1674:0.049947221 1732:0.058415759 1739:0.051140279 1762:0.076620162 1790:0.063969374 1868:0.061339509 1899:0.069703363 1901:0.1521965 1919:0.067146897 1960:0.071161911 2197:0.089586496 2261:0.10228055 2307:0.067146897 2327:0.050732169 2357:0.08176925 2483:0.062166911 2486:0.067146897 2512:0.05289112 2818:0.078979157 2933:0.27881345 2948:0.078979157 3027:0.049569339 3313:0.17917299 3414:0.34073621 3419:0.078979157 3420:0.085184053 3664:0.064957008 3704:0.064957008 3914:0.078979157 3915:0.089586496 4044:0.08176925 4284:0.08176925 6359:0.085184053 #
1.0000000029802323 10:0.0019610899 12:0.063163728 25:0.022492779 26:0.055472221 29:0.051495239 43:0.051302899 72:0.048077911 74:0.069145128 83:0.077250339 90:0.061652001 92:0.020959171 93:0.035415221 100:0.12695536 105:0.03087965 111:0.0311292 118:0.05414474 141:0.10170693 142:0.11857189 202:0.079782411 208:0.10170693 228:0.043225922 229:0.022201389 268:0.032241181 282:0.057362951 289:0.0245088 294:0.061360609 343:0.037279788 372:0.15766576 386:0.06545154 387:0.03895076 426:0.051495239 461:0.06954731 487:0.03322348 499:0.10675901 503:0.14513128 504:0.23643564 511:0.028069099 587:0.091062337 647:0.14700311 680:0.05073484 685:0.053930368 786:0.098841161 821:0.14074433 852:0.053298362 853:0.081976198 877:0.11521994 882:0.085614458 896:0.036958929 977:0.068360202 978:0.053507209 1003:0.091841571 1004:0.097525649 1050:0.086412258 1087:0.058884129 1113:0.057859521 1120:0.13372485 1136:0.06954731 1239:0.08509627 1262:0.077653043 1273:0.089894049 1434:0.14999244 1435:0.08723712 1511:0.077653043 1627:0.05711842 1956:0.086412258 1990:0.053930368 2022:0.095090523 2024:0.10327722 2087:0.12557147 2239:0.069956243 2240:0.39478001 2292:0.23823804 2327:0.080660693 2451:0.082661629 2456:0.18791728 2618:0.1523018 2681:0.079412676 2754:0.095090523 2768:0.11570611 2902:0.084841982 3514:0.090848327 4309:0.098841161 4878:0.36546251 4879:0.1523018 #
0.82955167350903891 1:0.032421939 10:0.00118364 14:0.050316911 17:0.14325561 18:0.030849179 22:0.081898421 41:0.21767725 45:0.081094958 50:0.044950061 52:0.058062609 61:0.1227724 62:0.01999745 63:0.02813356 76:0.024667161 83:0.01554173 87:0.045262221 89:0.095860571 99:0.02832553 100:0.038312569 101:0.018488619 102:0.060572919 105:0.018637709 120:0.09521421 135:0.051207189 139:0.03267958 179:0.02813356 186:0.030508971 188:0.02757227 191:0.01445055 197:0.11772509 202:0.048153441 218:0.04830208 228:0.026089421 268:0.019459469 274:0.047930289 283:0.040137898 287:0.016764451 307:0.03668924 315:0.13731299 334:0.18092847 337:0.045877852 344:0.023233321 362:0.029428691 372:0.02379017 426:0.062160902 459:0.059917789 461:0.041975949 466:0.044362571 471:0.027850229 480:0.12968776 487:0.020052349 502:0.13056958 511:0.01694138 527:0.088725142 553:0.072043218 589:0.13860185 596:0.058649808 604:0.069835544 607:0.034474369 624:0.039298519 640:0.024742659 643:0.038896158 666:0.06443543 697:0.10063382 710:0.037568849 726:0.10241439 762:0.036860991 807:0.049075171 877:0.069542103 891:0.034474369 902:0.061386202 910:0.1227724 926:0.052154958 986:0.034921668 992:0.054256421 1063:0.33297369 1077:0.081152603 1083:0.035540089 1120:0.04035547 1161:0.069835544 1164:0.026006689 1166:0.050316911 1224:0.037034791 1267:0.036185689 1301:0.061698359 1365:0.055431861 1413:0.047930289 1456:0.089306757 1465:0.037210658 1492:0.049891219 1547:0.0424738 1585:0.071565211 1593:0.10431316 1659:0.055431861 1663:0.066961579 1672:0.041975949 1718:0.063347138 1750:0.058862548 1845:0.10334686 1855:0.058862548 1890:0.10530561 2044:0.04379769 2052:0.078467309 2119:0.069835544 2201:0.16740395 2229:0.37217692 2427:0.066888653 2450:0.066888653 2541:0.11211372 2609:0.069835544 2644:0.046530642 2927:0.081744209 3421:0.091923222 3876:0.053168129 4282:0.085968882 4299:0.065610871 4409:0.085968882 4486:0.065610871 4511:0.085968882 4835:0.11931307 4864:0.071565211 4913:0.066888653 5039:0.078467309 5138:0.081744209 5153:0.081744209 5912:0.081744209 6154:0.1569346 6766:0.081744209 7124:0.085968882 7126:0.25790665 #
0.71476252138203078 10:0.0034879399 25:0.020002531 26:0.098661393 38:0.046849709 41:0.040090788 45:0.03982852 52:0.057033069 57:0.047770578 67:0.10332438 70:0.15614936 76:0.03634467 80:0.050583638 92:0.037277412 93:0.062988557 110:0.051453691 120:0.02805778 121:0.036233991 136:0.067666382 137:0.062957332 179:0.041452069 198:0.07410235 201:0.1256332 222:0.061138012 228:0.038440231 229:0.0197434 242:0.078372829 246:0.11126647 268:0.086014926 275:0.032124098 282:0.051012099 289:0.043590691 295:0.096300378 323:0.14935897 326:0.056732692 334:0.053316109 337:0.067596562 341:0.066304818 354:0.086728252 385:0.05562285 391:0.040090788 405:0.059785239 431:0.04305556 486:0.052364871 509:0.051904481 599:0.053807881 617:0.048342519 640:0.036455911 641:0.056449849 647:0.065363944 731:0.07230749 796:0.042606331 834:0.087898113 869:0.057902548 959:0.10115868 977:0.060791802 1034:0.082594343 1037:0.094939351 1164:0.038318329 1168:0.60221082 1172:0.098553933 1180:0.16851196 1195:0.047030769 1239:0.037837479 1333:0.053316109 1347:0.093335859 1358:0.055895019 1467:0.075448833 1479:0.084562719 1511:0.069055811 1512:0.089134857 1542:0.096671253 1627:0.15238392 1637:0.079941571 1655:0.076135777 1749:0.065363944 1856:0.11561396 1890:0.077578798 1893:0.084562719 1945:0.072900333 1970:0.082594343 2000:0.085618399 2120:0.084562719 2636:0.086728252 2947:0.091843039 2961:0.10289589 3052:0.080790199 3679:0.1266668 3744:0.11166903 3957:0.13543995 4367:0.10544439 5808:0.1266668 6247:0.10061618 6430:0.2533336 #
-0.73725726967885885 596:0.2753391 1353:0.40363601 1465:0.34938049 1593:0.3264744 2130:0.34772918 2629:0.48079759 2794:0.42489079 #
-0.67987179633700556 9:0.046688762 10:0.00203767 32:0.034806538 35:0.068007462 38:0.43791702 76:0.042465441 80:0.029551201 83:0.02675567 107:0.066286989 186:0.052522331 198:0.028860619 201:0.048930328 242:0.045785759 294:0.12751354 302:0.054638121 344:0.07999406 362:0.20265035 641:0.065956518 681:0.068729833 685:0.056036379 726:0.088155098 756:0.14711984 796:0.049781621 801:0.05013033 857:0.085177407 896:0.11520659 952:0.074926801 969:0.10414599 1027:0.12935238 1057:0.046842441 1124:0.077904493 1146:0.088155098 1230:0.068007462 1251:0.068729833 1334:0.098803848 1895:0.10731025 2019:0.10567864 2201:0.057638429 2239:0.072688073 3147:0.080685429 3284:0.10567864 3762:0.6329971 3765:0.14799865 4330:0.126578 4360:0.10905447 4393:0.11756086 5982:0.15824927 6042:0.14799865 7509:0.14799865 #
-0.46499400076823161 10:0.0028823901 20:0.05264407 36:0.097743951 48:0.091487788 52:0.047131419 70:0.1032319 72:0.070664451 104:0.088119522 105:0.045386609 133:0.37888023 224:0.084674582 246:0.073559374 282:0.084311523 302:0.038644221 320:0.072956003 330:0.10665627 391:0.066261053 567:0.29055157 624:0.095699891 754:0.40651542 818:0.083596259 829:0.14527579 857:0.12048784 896:0.21728754 967:0.10733746 996:0.16288745 1027:0.091487788 1057:0.13252209 1135:0.18456376 1140:0.10282102 1146:0.12469993 1224:0.090187229 1230:0.096200049 1231:0.11019991 1267:0.088119522 2053:0.12149527 2553:0.17427583 2615:0.14948788 2754:0.13976315 3178:0.17006373 6313:0.16288745 7153:0.15426315 7695:0.29897577 #
0.73332595781994714 7:0.042219389 8:0.081073299 9:0.036563661 10:0.00319155 17:0.04828424 18:0.041590821 22:0.036805108 25:0.03660557 27:0.0606016 28:0.043201338 33:0.090179168 36:0.05411385 39:0.20066939 40:0.037801471 67:0.04727212 83:0.12571999 87:0.03051123 92:0.051164571 111:0.025330391 133:0.052439742 134:0.095406666 136:0.030958161 158:0.039535791 160:0.041436739 182:0.059809551 183:0.066705517 198:0.0226018 201:0.038319111 229:0.036131348 239:0.035756022 250:0.064619534 257:0.035398699 289:0.01994325 385:0.050896209 397:0.08882422 431:0.039396849 437:0.035512161 486:0.04791509 487:0.027034551 507:0.031883501 522:0.062287599 533:0.042219389 568:0.079358391 626:0.04728651 650:0.059047971 689:0.066163063 716:0.042541329 728:0.15731922 748:0.05594271 832:0.05217398 838:0.0529822 943:0.12923907 946:0.081560493 956:0.086871743 959:0.046281289 965:0.28672475 1087:0.04791509 1124:0.061009832 1125:0.074733153 1280:0.081560493 1323:0.068428218 1331:0.086871743 1346:0.062287599 1377:0.15050206 1388:0.05594271 1522:0.085404508 1563:0.088456467 1613:0.05726311 1674:0.064619534 1769:0.090179168 1772:0.057607438 1943:0.071681187 2177:0.063653558 2261:0.066163063 2288:0.071681187 2291:0.092066169 2320:0.072401211 2361:0.21094568 2395:0.63473696 2438:0.085404508 2455:0.11020742 2459:0.09415216 2683:0.084038548 2755:0.084038548 3074:0.07737688 3158:0.075575769 3280:0.081560493 3691:0.096484102 5103:0.084038548 5874:0.12393074 6997:0.11020742 #
0.65587468235273449 10:0.0039803102 14:0.08460246 27:0.22673605 39:0.12513143 40:0.047143731 62:0.10087068 63:0.04730355 67:0.029477481 83:0.13065872 86:0.34546229 96:0.04620596 101:0.03108662 105:0.031337298 109:0.059231449 111:0.031590551 117:0.067127094 125:0.18336405 126:0.17719617 136:0.038609169 139:0.05494719 154:0.06748756 181:0.040973809 191:0.02429704 198:0.02818761 207:0.056294341 223:0.058463778 229:0.022530431 248:0.1179458 257:0.044147141 288:0.083191127 398:0.056996521 422:0.04545081 426:0.052258428 437:0.044288639 487:0.03371587 533:0.052653499 534:0.058972899 599:0.061403539 659:0.092194751 680:0.051486749 728:0.1961991 772:0.09535116 831:0.088530019 856:0.088530019 863:0.12362629 867:0.057719249 890:0.061689001 923:0.098971032 1035:0.088530019 1227:0.11246606 1462:0.072726488 1556:0.10480784 1570:0.60164595 1628:0.067853369 1973:0.086883307 1975:0.11481942 2320:0.090294458 2608:0.09535116 2626:0.13744409 3024:0.10651139 3599:0.081214748 4852:0.15455899 4855:0.15455899 #
0.59481794302059143 2:0.036837488 4:0.086041003 10:0.00104478 15:0.092076182 17:0.09483771 22:0.02409697 25:0.023966329 29:0.027434399 31:0.042307582 36:0.07085865 39:0.098536432 46:0.0391584 50:0.039676972 52:0.01708376 62:0.01765155 67:0.06189983 70:0.01870927 72:0.0256138 80:0.03030378 82:0.053687021 84:0.091290548 87:0.039952509 92:0.033498369 93:0.01886767 101:0.048959158 105:0.01645132 112:0.055021562 121:0.021707149 125:0.032087222 126:0.03720947 158:0.0258848 160:0.054258771 179:0.02483321 181:0.021510251 183:0.087346628 188:0.048675541 191:0.063776769 198:0.029595621 201:0.025088221 213:0.0391584 215:0.062741756 219:0.050057031 224:0.03069206 229:0.02365585 239:0.035115171 246:0.026663121 248:0.03095934 268:0.034353361 281:0.04107213 289:0.01305721 291:0.027746771 302:0.0140074 317:0.033987559 320:0.02644442 334:0.031940751 343:0.019861029 357:0.031652682 382:0.038179629 387:0.020751251 389:0.02785258 400:0.02943258 404:0.04331816 417:0.18083219 420:0.082144253 423:0.18083219 431:0.02579383 447:0.04078082 455:0.035240091 458:0.022739191 459:0.02644442 462:0.031940751 475:0.02425701 490:0.17166626 507:0.020874711 511:0.01495398 536:0.032235362 643:0.034333251 660:0.090124607 671:0.089602403 691:0.02355192 701:0.053399138 713:0.053399138 752:0.02683139 757:0.047402389 793:0.031940751 807:0.04331816 884:0.032845479 886:0.050176442 925:0.047891598 952:0.038417481 953:0.046476111 992:0.047891598 1009:0.03450961 1074:0.05791406 1076:0.038659781 1083:0.031370878 1183:0.037269611 1197:0.04078082 1199:0.22765163 1205:0.043673322 1211:0.05129249 1212:0.12891743 1224:0.032690231 1255:0.031940751 1257:0.039676972 1271:0.039415091 1301:0.027230261 1321:0.054184988 1357:0.047891598 1378:0.05687651 1403:0.029674871 1412:0.04561162 1456:0.039415091 1487:0.042635769 1511:0.041370131 1529:0.038659781 1542:0.05791406 1587:0.11183177 1607:0.042972472 1616:0.05687651 1645:0.037051748 1647:0.081561647 1718:0.055915881 1745:0.072154798 1764:0.04561162 1821:0.060277399 1876:0.063169889 1901:0.042972472 1924:0.050660051 2006:0.075883873 2174:0.04441423 2301:0.047402389 2414:0.041987509 2512:0.044801202 2559:0.05687651 2565:0.050660051 2622:0.04693098 2653:0.081139714 2684:0.35053575 2689:0.35904744 2693:0.3792949 2776:0.075883873 2867:0.069262311 2937:0.063169889 3148:0.081139714 3221:0.096799992 3240:0.075883873 3265:0.048929151 3373:0.052658219 3381:0.04693098 3637:0.061643131 3794:0.055021562 4052:0.063169889 4288:0.05904194 4289:0.069262311 4675:0.075883873 4939:0.05195738 5350:0.069262311 5351:0.069262311 5353:0.18950967 5354:0.069262311 5915:0.064900793 6267:0.037269611 6457:0.072154798 6818:0.075883873 6846:0.072154798 #
0.42983546271795797 10:0.00141037 17:0.21337122 19:0.04371725 25:0.032352481 41:0.064843617 43:0.036895748 56:0.16716973 57:0.038632531 62:0.023828071 70:0.0252559 87:0.02696622 96:0.032744858 102:0.10826398 105:0.02220786 136:0.027361231 152:0.033185091 179:0.033522692 181:0.02903698 188:0.03285389 191:0.051655881 202:0.028688749 203:0.038034242 207:0.039894208 214:0.16286904 215:0.042347979 233:0.074274361 239:0.094804913 246:0.035992909 260:0.080448747 263:0.12271202 268:0.023187039 275:0.02597907 280:0.060816601 286:0.05001666 287:0.2197334 291:0.037455741 297:0.058955211 309:0.04888735 337:0.054666001 378:0.029392291 409:0.038632531 415:0.1188963 418:0.044550661 460:0.091760561 466:0.052860461 480:0.077265061 540:0.041611101 576:0.05356048 607:0.082156241 613:0.059448149 619:0.049162921 685:0.15514141 691:0.063586131 702:0.13365199 708:0.07882072 729:0.09130308 752:0.036220051 768:0.093498133 821:0.050609879 846:0.070137978 867:0.040904012 877:0.041431628 939:0.0483489 961:0.081369281 982:0.074274361 986:0.16644441 1060:0.055846099 1087:0.042347979 1092:0.076778367 1148:0.05252067 1190:0.05667951 1192:0.058955211 1211:0.069240429 1222:0.054666001 1301:0.036758501 1333:0.043117251 1424:0.1095316 1453:0.064649522 1462:0.051539209 1605:0.19554941 1628:0.14425731 1663:0.43883634 1667:0.051860292 1672:0.10003333 1678:0.082156241 1708:0.069240429 1712:0.069240429 1716:0.097402751 1721:0.06398914 1772:0.050914209 1785:0.069240429 1793:0.083212912 1885:0.058009129 1973:0.061571751 1990:0.038785361 2135:0.093498133 2372:0.073145047 2376:0.070137978 2383:0.078178979 2573:0.18061566 2862:0.11088765 2912:0.12166045 3175:0.10062152 3191:0.087610461 3294:0.087610461 3382:0.14027596 3392:0.097402751 3704:0.074274361 3721:0.090307832 4855:0.1095316 5157:0.090307832 5216:0.068386689 5612:0.10243668 5637:0.097402751 6446:0.097402751 6569:0.083212912 #
0.27811156608529508 4:0.10504024 10:0.00127549 11:0.04523338 17:0.19296569 25:0.01462924 41:0.26389068 56:0.037795659 57:0.034937952 67:0.01889208 70:0.068521738 72:0.03126974 80:0.01849767 84:0.03714966 90:0.040098291 92:0.040895361 111:0.040492691 124:0.04811858 136:0.049489141 181:0.026260059 188:0.059423879 191:0.15571943 197:0.063430414 203:0.034396879 223:0.037469361 246:0.065101542 263:0.0369922 287:0.0180654 289:0.01594045 302:0.017100461 307:0.039536402 309:0.1326362 343:0.02424667 356:0.079231933 378:0.02658139 381:0.043021671 447:0.04978589 453:0.059733499 458:0.027760381 540:0.037631668 607:0.03714966 653:0.043021671 691:0.14376286 701:0.065190531 702:0.080580212 876:0.05376289 886:0.0306281 890:0.039536402 939:0.043725111 986:0.037631668 1076:0.047196481 1143:0.0590875 1148:0.047497921 1181:0.062618703 1190:0.30755416 1192:0.21326837 1255:0.03899378 1301:0.03324315 1315:0.056738779 1333:0.077987567 1346:0.04978589 1403:0.036227562 1413:0.051649779 1453:0.11693368 1547:0.045769859 1596:0.078345187 1616:0.06943576 1628:0.086974278 1663:0.25255281 1664:0.070702419 1667:0.093801372 1678:0.11144898 1721:0.17360882 1772:0.04604508 1845:0.0556834 1947:0.079231933 1990:0.03507616 2149:0.077118829 2157:0.15050986 2201:0.036078971 2318:0.081671342 2376:0.063430414 2383:0.14140484 2450:0.07207936 2590:0.081671342 2681:0.051649779 2697:0.084556542 2712:0.066149913 2902:0.055180989 3175:0.090998687 3194:0.070702419 3198:0.068263009 3382:0.12686083 3514:0.118175 3670:0.070702419 3682:0.075254932 3730:0.29717001 4900:0.079231933 5215:0.06943576 5218:0.28831744 5610:0.073587619 5611:0.15423764 5612:0.092640258 5613:0.084556542 5614:0.075254932 5615:0.081671342 5616:0.081671342 5617:0.075254932 #
0.43903721323148964 4:0.021709619 10:0.0031634001 12:0.033962749 16:0.098765291 17:0.25524455 20:0.01925879 25:0.024188461 26:0.029827069 32:0.01801189 38:0.028326981 41:0.36360446 46:0.039521329 52:0.0344842 57:0.05776754 58:0.0440781 62:0.01781515 63:0.05012675 67:0.078091927 70:0.018882681 72:0.025851199 75:0.10093757 76:0.087901048 80:0.061169289 83:0.01384568 87:0.10080701 99:0.15140635 101:0.032941949 104:0.032236788 105:0.033207592 108:0.038773552 111:0.033475962 118:0.058226589 138:0.0440781 168:0.033962749 202:0.04289851 226:0.053894062 229:0.035812661 239:0.023627089 246:0.14800633 252:0.06304343 255:0.13447765 257:0.046781961 258:0.10629256 265:0.034302581 266:0.039018091 268:0.034671761 275:0.03884672 280:0.04546978 293:0.11917833 300:0.033149902 302:0.01413722 307:0.03268538 343:0.020045109 347:0.05958917 356:0.065502323 382:0.038533501 385:0.033631518 386:0.035192888 387:0.02094358 389:0.056221459 406:0.02748264 409:0.05776754 419:0.031383269 431:0.0260329 440:0.079495572 458:0.022949951 459:0.02668952 460:0.034302581 467:0.049939439 471:0.02481097 480:0.05776754 486:0.031661641 487:0.01786406 511:0.01509258 541:0.030453149 549:0.033962749 582:0.036347989 587:0.024481829 589:0.082317591 596:0.02612471 604:0.062214471 609:0.036966179 626:0.03124628 632:0.04237666 671:0.045216441 691:0.023770209 702:0.06661696 707:0.058450829 722:0.036550831 739:0.0440781 776:0.0420614 787:0.058930632 799:0.04175356 818:0.03058205 819:0.029113291 833:0.045216441 859:0.01925879 868:0.043030929 884:0.033149902 895:0.04237666 930:0.06990426 959:0.03058205 970:0.060836069 1006:0.047365949 1009:0.03482946 1077:0.03614825 1083:0.063323267 1113:0.03111071 1130:0.036347989 1136:0.037395161 1190:0.25425997 1192:0.0440781 1197:0.082317591 1250:0.047841739 1267:0.032236788 1313:0.033962749 1316:0.048335481 1329:0.05314628 1337:0.03330848 1344:0.035757702 1349:0.047841739 1353:0.038297769 1403:0.029949909 1417:0.055531532 1453:0.048335481 1588:0.065502323 1663:0.23861656 1678:0.27640998 1694:0.05314628 1708:0.051767889 1790:0.054687191 1811:0.046906859 1891:0.055531532 1945:0.0440781 1968:0.090959929 2084:0.054687191 2090:0.055531532 2135:0.06990426 2144:0.081891738 2218:0.077066988 2240:0.035378471 2263:0.081891738 2265:0.12347639 2292:0.085399412 2335:0.047841739 2381:0.063755378 2414:0.04237666 2505:0.047841739 2585:0.05958917 2651:0.038297769 2776:0.0765872 2947:0.055531532 3175:0.037615038 3194:0.058450829 3216:0.043030929 3221:0.048848592 3280:0.053894062 3298:0.072823562 3437:0.081891738 3635:0.047365949 3642:0.051129591 4276:0.055531532 4286:0.11106305 4465:0.0765872 4471:0.090959929 4619:0.081891738 5217:0.056434128 5519:0.072823562 5600:0.0765872 5699:0.24567524 5997:0.067519009 6241:0.065502323 6248:0.06990426 6755:0.0765872 6762:0.072823562 6766:0.072823562 #
0.49258251554404281 2:0.10164407 4:0.05935229 5:0.10344782 10:0.0028828201 17:0.13084076 20:0.052651949 25:0.066129252 42:0.13978405 46:0.10804805 56:0.085424744 111:0.04576024 124:0.10875633 126:0.05133523 169:0.14951025 180:0.063140668 181:0.11870458 207:0.081544727 268:0.094789729 275:0.053101849 280:0.062155299 289:0.072056383 320:0.072966918 376:0.13500807 397:0.24069612 398:0.082561873 400:0.081212021 409:0.078965828 422:0.065837421 424:0.14861332 458:0.062743261 553:0.087733068 792:0.13812017 832:0.094254129 884:0.090629078 1094:0.099926934 1136:0.10223527 1163:0.10344782 1257:0.10947891 1259:0.10406986 1301:0.30054107 1387:0.11857206 1439:0.14152911 1608:0.15428624 1691:0.083608769 2684:0.48360896 4437:0.17430191 4915:0.18459138 5417:0.22388522 6267:0.3085092 #
