SVM-light Version V6.01
0 # kernel type
3 # kernel parameter -d 
1 # kernel parameter -g 
1 # kernel parameter -s 
1 # kernel parameter -r 
empty# kernel parameter -u 
6226 # highest feature index 
1016 # number of training documents 
552 # number of support vectors plus 1 
0.13814334 # threshold b, each following line is a SV (starting with alpha*y)
0.45084721442188591 8:0.03628068 9:0.05320574 10:0.0035550301 20:0.051488221 21:0.059332099 23:0.26682591 25:0.038387738 28:0.038595401 34:0.10363899 36:0.093344912 40:0.05692571 54:0.139621 67:0.041530769 82:0.09049429 83:0.16740385 86:0.22005922 87:0.056747481 102:0.080104582 128:0.074568897 160:0.084236547 176:0.1029389 188:0.068278529 191:0.07373894 198:0.04315896 201:0.070336923 209:0.0996399 233:0.13012768 239:0.03384101 246:0.041530769 257:0.061922152 268:0.04315896 279:0.098405108 291:0.078380711 345:0.081549607 375:0.11534735 386:0.08848621 389:0.080104582 422:0.061510589 434:0.13507544 461:0.090347119 485:0.11247637 533:0.16384137 535:0.08940392 536:0.096633248 541:0.083058879 648:0.10027456 670:0.11340665 678:0.13510531 708:0.076105498 728:0.095501378 787:0.077061981 792:0.12074807 796:0.074568897 951:0.096633248 1122:0.10583026 1183:0.10225296 1321:0.13012768 1385:0.14313141 1482:0.10899096 1643:0.12445571 1887:0.16047546 1973:0.1184837 2060:0.21154337 2061:0.14313141 2067:0.1536621 2071:0.1507078 2075:0.21154337 2083:0.3760179 2086:0.16900833 2090:0.11740573 #
-0.75186861756868373 10:0.0032917799 52:0.047534771 92:0.09552636 93:0.086428292 105:0.043336712 120:0.04739473 136:0.047255311 139:0.13074988 257:0.17201014 302:0.090731442 458:0.067157373 673:0.09730237 683:0.12510055 953:0.353268 965:0.11909402 1094:0.097993359 1136:0.10092 1397:0.69634634 1686:0.10589436 1691:0.086432569 1943:0.11523956 1953:0.1305033 1963:0.2650646 1964:0.1305033 1965:0.13954765 2018:0.12859733 3102:0.13954765 3885:0.15649299 3886:0.17408659 #
-0.295952472775178 9:0.04135615 10:0.0027632799 29:0.05406059 38:0.096910238 45:0.050486211 76:0.13274288 82:0.1406801 107:0.29185995 136:0.15867385 137:0.076964572 180:0.047495332 198:0.03354691 207:0.060664311 213:0.08814954 246:0.12912534 302:0.076164491 303:0.07175602 320:0.0598993 344:0.094056442 433:0.066748112 440:0.073802873 549:0.078444839 662:0.16943458 685:0.057043411 801:0.28521705 821:0.073380597 896:0.063675903 915:0.097772919 1057:0.10812117 1100:0.16336092 1130:0.16222578 1146:0.10237431 1231:0.079479918 1385:0.11125422 1712:0.10366195 1847:0.39410406 1950:0.10955097 2007:0.16692065 2239:0.049620848 2245:0.16442996 2261:0.10501564 2615:0.11943959 4177:0.43180406 4179:0.29227394 #
-1.0000000026399696 10:0.00462399 20:0.033485081 22:0.043607339 45:0.042241059 53:0.0731484 54:0.090801768 57:0.095833808 67:0.27009311 74:0.056965418 80:0.087541297 83:0.04354807 86:0.17889291 101:0.02700931 121:0.12244792 145:0.06983 147:0.13042603 181:0.036222439 188:0.044404581 209:0.06480027 229:0.039968409 239:0.044016641 242:0.041517019 266:0.057842929 282:0.05612145 289:0.06899631 294:0.061048709 295:0.19320373 297:0.086732402 298:0.058143351 299:0.12960055 300:0.060369238 301:0.084627837 302:0.031862851 303:0.060037181 304:0.21393026 305:0.093084738 306:0.13757607 307:0.058756761 308:0.12227061 309:0.05612145 310:0.10991366 311:0.077055231 312:0.098012 313:0.093084738 314:0.06139645 315:0.05032815 316:0.13757607 317:0.06174976 318:0.10203787 319:0.08364629 320:0.15035053 321:0.12862295 322:0.365742 323:0.21845363 324:0.0731484 325:0.11734334 326:0.14548644 328:0.22312634 329:0.078527853 330:0.078527853 331:0.13757607 332:0.067865938 333:0.10696513 334:0.058756761 335:0.091659658 336:0.084627837 337:0.073753402 338:0.093084738 339:0.15555853 340:0.11734334 341:0.25277445 342:0.06139645 343:0.03177103 344:0.039347801 345:0.053035349 346:0.073753402 347:0.12227061 348:0.093084738 #
-0.36574311244195046 4:0.01474389 7:0.03036988 9:0.01157313 10:0.00154656 25:0.00834997 32:0.01050468 41:0.028158041 60:0.059573881 62:0.022599131 80:0.0097597903 92:0.0149602 96:0.01417749 101:0.0090336297 105:0.01018032 109:0.0381057 111:0.01018032 117:0.021274021 128:0.01621997 158:0.03257123 175:0.060418151 198:0.04693893 200:0.026264699 229:0.04010392 239:0.0073609799 248:0.020191301 255:0.025310431 263:0.01924721 283:0.0208952 289:0.034615122 294:0.02041856 300:0.020191301 334:0.01965199 381:0.01895755 383:0.22150087 422:0.01337957 426:0.017271791 432:0.039513499 434:0.01469057 437:0.029595209 452:0.02736083 488:0.039303981 516:0.02466782 527:0.02446547 539:0.02254319 610:0.064380594 617:0.01895755 648:0.02181137 670:0.12333909 680:0.01059567 721:0.019863009 722:0.042548042 752:0.033665851 753:0.017424069 762:0.020653039 770:0.025089949 802:0.02269868 810:0.029008821 819:0.031926122 842:0.087026447 853:0.043346651 859:0.01160805 886:0.033384498 905:0.092743203 915:0.02736083 920:0.02830492 944:0.13261931 953:0.027662311 967:0.094928943 979:0.03790056 981:0.03020907 989:0.039247058 1023:0.088162906 1025:0.01877057 1083:0.05834049 1141:0.027662311 1156:0.021537811 1163:0.02370733 1214:0.026264699 1222:0.048930939 1267:0.018863469 1403:0.079452053 1482:0.02370733 1532:0.026264699 1546:0.031133451 1564:0.083929889 1692:0.03790056 1749:0.02577216 1772:0.026264699 1869:0.031133451 1891:0.030656811 1941:0.03790056 2030:0.10471819 2076:0.031642981 2096:0.03490606 2099:0.027662311 2106:0.03490606 2154:0.31642982 2208:0.45480669 2212:0.040895049 2215:0.039247058 2265:0.02736083 2270:0.03577593 2298:0.03490606 2314:0.02446547 2361:0.025310431 2552:0.03790056 2602:0.039247058 2615:0.13369617 2622:0.026014321 2689:0.039247058 2719:0.11774119 2862:0.02577216 2916:0.032190289 3235:0.065562867 3238:0.043019678 3297:0.28620744 3347:0.17207871 3599:0.026014321 3748:0.040895049 3831:0.13804252 3945:0.03790056 4073:0.040895049 4181:0.09202835 4183:0.081790097 4184:0.35322356 4188:0.051133301 4190:0.046014171 4191:0.086039357 4192:0.10226659 4193:0.046014171 4194:0.0367621 4195:0.046014171 4199:0.12268515 4200:0.040895049 4201:0.039247058 4203:0.3139765 4205:0.039247058 4206:0.0367621 4209:0.051133301 4210:0.039247058 #
0.19553623244253712 8:0.081977673 9:0.060110278 10:0.00401637 21:0.26812661 28:0.043603949 80:0.05069188 82:0.051118892 110:0.19595197 118:0.05799824 136:0.11531453 158:0.08458671 160:0.095167972 184:0.29759777 191:0.041654039 198:0.097519442 229:0.034716312 239:0.07646516 252:0.10048401 266:0.10048401 289:0.059929758 300:0.10487268 378:0.053480189 386:0.099969111 495:0.20384738 591:0.16435215 672:0.12042594 687:0.12042594 697:0.5812372 752:0.087429427 1058:0.17360289 1158:0.12408195 1210:0.15067042 1337:0.11872081 1383:0.14211085 1899:0.17725891 1973:0.13385938 2030:0.18130045 3809:0.23899543 #
0.34268309655060236 8:0.064625032 10:0.0031661999 28:0.068748139 40:0.050699521 82:0.080596574 83:0.059637692 85:0.28584725 92:0.030627429 104:0.069214948 111:0.04168354 201:0.062643893 229:0.02736773 234:0.085056022 239:0.03013969 244:0.12552495 246:0.073976763 257:0.05514947 268:0.038438492 280:0.12528779 287:0.04098298 302:0.043635141 317:0.084564313 320:0.068633407 329:0.64524823 343:0.043509409 503:0.093590558 580:0.13685545 584:0.16720849 603:0.1045646 632:0.09781687 641:0.10100291 663:0.09781687 672:0.18986949 687:0.094934747 691:0.052672349 695:0.28077167 739:0.10860251 750:0.080894433 780:0.10651621 796:0.066413 859:0.047529399 864:0.16744566 867:0.07538113 868:0.11455091 869:0.091069147 870:0.1120295 873:0.092940219 875:0.23179021 876:0.1120295 #
1.0000000026399696 8:0.04416123 10:0.0043272199 20:0.062672012 28:0.046978738 29:0.084657408 63:0.083414368 65:0.14697585 89:0.14421964 90:0.1117557 91:0.21962447 92:0.12557472 93:0.056807399 94:0.12881774 95:0.099714741 96:0.15867297 97:0.16031539 98:0.20020019 99:0.071296111 100:0.066759512 101:0.050551701 102:0.097504161 103:0.088627942 104:0.09459547 105:0.056968521 106:0.15148883 107:0.34278357 108:0.2235114 109:0.21323746 110:0.31667697 111:0.056968521 112:0.16668613 113:0.22884654 114:0.20020019 115:0.21217093 116:0.1228425 117:0.11904828 118:0.1249742 119:0.12529834 120:0.06230301 121:0.0763928 122:0.09459547 123:0.22884654 124:0.1155733 125:0.09459547 126:0.067170739 127:0.10939346 128:0.090766072 129:0.11491204 #
-0.38825647410767078 10:0.0051130601 25:0.05521154 26:0.11946025 99:0.084243692 100:0.078883238 118:0.14766988 242:0.091816351 258:0.25060558 315:0.11130246 323:0.060389731 332:0.15008789 341:0.079859927 434:0.097136781 461:0.25988525 511:0.1301543 617:0.12535091 767:0.47759846 1435:0.18091492 1444:0.20922931 1542:0.20270854 1990:0.13277432 2239:0.091816351 2240:0.17122331 2451:0.15919949 2902:0.45026371 4596:0.30425432 #
0.18037132480330029 2:0.10674812 8:0.02908694 10:0.00285014 17:0.27575067 20:0.04127913 28:0.030942701 29:0.055759888 41:0.051892292 45:0.052073158 47:0.21118455 52:0.041157339 54:0.055968478 56:0.083089441 57:0.059070129 63:0.054941159 65:0.096806131 67:0.033296041 70:0.12202662 75:0.058604799 80:0.071945041 83:0.026842199 84:0.077472813 86:0.08821293 99:0.046959419 105:0.03752251 136:0.081830747 139:0.056604009 168:0.072052367 180:0.048988272 191:0.02955899 201:0.056390509 203:0.065379947 207:0.06257119 246:0.033296041 247:0.25731277 248:0.074420892 250:0.26214069 251:0.12082545 252:0.21391965 254:0.11662935 255:0.18657778 257:0.049644221 258:0.13969345 259:0.097761348 260:0.072819203 262:0.090174548 263:0.070941158 264:0.12578838 265:0.090174548 266:0.071306549 267:0.062839381 268:0.2076084 272:0.14465639 274:0.11299452 275:0.12457309 276:0.11662935 278:0.12319397 279:0.078893341 280:0.056390509 281:0.083089441 282:0.06918437 283:0.077015303 285:0.10831662 286:0.083089441 287:0.14756753 288:0.081978239 289:0.042528011 290:0.11299452 291:0.062839381 292:0.065379947 293:0.45219159 #
-1.0000000026399696 4:0.043612521 10:0.0022873599 17:0.063229121 29:0.089499481 38:0.080219403 40:0.18313432 41:0.4997499 45:0.083581962 50:0.069600008 62:0.16712093 63:0.04409267 76:0.03662686 80:0.057739031 96:0.041937109 101:0.080164582 104:0.050002981 121:0.040381081 153:0.059726 159:0.14025287 180:0.03931522 214:0.072967559 239:0.021773821 242:0.082149319 260:0.058440581 266:0.057226609 275:0.066650219 281:0.066682898 293:0.12096782 302:0.063046701 406:0.052470259 456:0.073582977 483:0.082755052 511:0.0291127 527:0.072369009 534:0.064934298 539:0.066682898 541:0.053441338 573:0.092092931 680:0.031342048 685:0.047218829 714:0.14593512 718:0.19393538 793:0.06039824 806:0.073582977 852:0.04937578 859:0.20602006 896:0.15812702 907:0.15108126 909:0.088109963 1057:0.044749741 1086:0.077691138 1100:0.067612648 1144:0.11211008 1159:0.080933496 1181:0.079252221 1202:0.080076687 1207:0.062928677 1270:0.12289408 1337:0.20283794 1458:0.10325235 1465:0.054457609 1492:0.077691138 1651:0.080076687 1654:0.082755052 1663:0.086928807 1945:0.075540632 2515:0.10095066 2806:0.077691138 4457:0.090683028 4470:0.12725247 4636:0.12725247 5827:0.38175744 #
-0.070335086244196585 4:0.042535629 10:0.0022308801 17:0.061667848 29:0.08728952 38:0.078238592 40:0.17861231 41:0.48740989 45:0.081518121 50:0.06788142 62:0.19559318 63:0.04300392 76:0.035722461 80:0.056313321 96:0.040901579 101:0.078185134 104:0.048768278 121:0.039383981 153:0.058251228 159:0.13678969 180:0.038344432 214:0.071165822 239:0.021236179 242:0.080120862 260:0.056997549 266:0.055813551 275:0.065004468 281:0.065036342 293:0.11798084 302:0.061489921 406:0.051174641 456:0.071766041 483:0.080711633 507:0.03965199 511:0.02839384 527:0.070582047 534:0.063330919 539:0.065036342 541:0.052121751 573:0.089818932 680:0.03056814 685:0.046052892 714:0.21349746 718:0.18914665 793:0.058906861 806:0.071766041 852:0.048156571 859:0.20093293 896:0.1542225 907:0.14735071 909:0.085934311 1057:0.04364476 1086:0.075772762 1100:0.065943129 1144:0.10934182 1159:0.078935057 1181:0.077295303 1202:0.078099407 1207:0.061374828 1251:0.062925071 1270:0.11985954 1337:0.1978294 1458:0.10070281 1465:0.053112932 1492:0.075772762 1651:0.078099407 1654:0.080711633 1663:0.084782332 1945:0.073675357 2515:0.098457947 2806:0.075772762 3158:0.078935057 4457:0.088443853 4470:0.12411031 4636:0.12411031 5827:0.37233093 #
-1.0000000026399696 4:0.036902431 8:0.01975197 9:0.11586534 10:0.00193543 12:0.051992979 14:0.21902934 17:0.10700175 19:0.046524361 21:0.064603306 23:0.096843779 25:0.0417982 28:0.042024311 36:0.05081895 38:0.033938538 39:0.033047538 40:0.03099156 74:0.0476873 80:0.048855469 83:0.018227641 92:0.1497753 96:0.070969567 101:0.02261023 107:0.05110554 111:0.02548028 118:0.083845712 120:0.05573247 126:0.090130262 134:0.044397332 136:0.11113704 139:0.038437892 148:0.088794671 152:0.040434029 163:0.079199091 171:0.063349359 180:0.099798881 181:0.03032279 190:0.053906899 201:0.038292911 206:0.05979342 219:0.19571342 224:0.053246658 234:0.051992979 240:0.05933699 257:0.067423463 263:0.04817377 279:0.053573828 287:0.050104089 291:0.04267212 302:0.026673259 320:0.041954178 338:0.077923782 343:0.026596401 378:0.025771379 386:0.04817377 404:0.13147561 413:0.067756332 428:0.07002259 436:0.072606049 437:0.037036858 444:0.043610629 452:0.068481311 457:0.071704179 458:0.03948589 459:0.040926982 475:0.031187169 480:0.054246079 487:0.02794857 497:0.050258759 509:0.096347541 511:0.024633501 530:0.075610168 531:0.06074157 561:0.09201172 587:0.038437892 619:0.056812432 644:0.14340836 667:0.0584566 673:0.057209961 681:0.05604212 687:0.058031641 733:0.050536729 748:0.10918319 756:0.044397332 762:0.10338481 766:0.14168856 768:0.075610168 769:0.34167475 780:0.13022229 782:0.042856049 783:0.071704179 790:0.063349359 795:0.07002259 804:0.098231308 808:0.0836569 809:0.11208424 810:0.072606049 811:0.066386461 819:0.15981552 826:0.1673138 838:0.05110554 842:0.072606049 843:0.067058712 844:0.063349359 882:0.068481311 907:0.063918173 986:0.050536729 1007:0.060261421 1009:0.05260919 1050:0.071704179 1146:0.071704179 1222:0.061234519 1255:0.055302631 1383:0.13696262 1387:0.057209961 1464:0.07002259 1547:0.056423262 1596:0.053573828 1625:0.07084427 1704:0.10767378 1786:0.068481311 1800:0.077923782 1822:0.09486115 2143:0.10235606 2214:0.087366238 2306:0.074553609 2466:0.08204852 2467:0.087366238 2469:0.09201172 2470:0.085418679 2471:0.11516869 2472:0.09486115 2473:0.09201172 2474:0.08204852 2475:0.09201172 2476:0.09486115 2477:0.10767378 2479:0.09486115 2480:0.087366238 2481:0.098231308 2482:0.11516869 2483:0.075610168 2485:0.073554203 2486:0.08204852 #
-1.0000000026399696 5:0.06204997 6:0.067271233 9:0.06954059 10:0.00232324 14:0.3067354 17:0.096331201 21:0.077547818 22:0.043819342 23:0.11624829 25:0.075259902 28:0.025222341 32:0.031560238 38:0.040738769 41:0.042298991 45:0.04244642 48:0.063915648 62:0.03394841 82:0.0591386 92:0.089892827 93:0.03049924 99:0.076556109 101:0.05428125 103:0.095166638 108:0.12000069 118:0.033548601 126:0.10818958 127:0.058732089 133:0.0566734 139:0.046139661 148:0.15987957 152:0.097071521 172:0.10041916 181:0.036398541 209:0.065115318 224:0.063915648 229:0.02008136 236:0.10748517 239:0.02211532 291:0.051222298 302:0.032017749 386:0.05782631 434:0.088272661 437:0.044457909 469:0.085488521 470:0.050572831 475:0.074872233 488:0.11808484 509:0.05782631 537:0.076042622 624:0.06134551 640:0.042298991 721:0.05967642 727:0.093537301 749:0.073504031 755:0.075380228 756:0.053293191 779:0.055846401 782:0.15432924 801:0.14387821 813:0.09848851 825:0.1138684 838:0.06134551 859:0.03487521 861:0.096712492 884:0.12941635 893:0.10253395 894:0.093537301 901:0.12286506 922:0.0706916 1017:0.089491859 1018:0.10748517 1038:0.074737042 1042:0.092105277 1163:0.071226291 1175:0.095068142 1246:0.25849658 1247:0.089491859 1387:0.068673082 1509:0.07815741 1549:0.12286506 1746:0.093537301 2024:0.089491859 2152:0.095068142 2204:0.066822961 2210:0.093537301 2402:0.2301762 2466:0.09848851 2470:0.10253395 2485:0.088292189 2490:0.10487174 2495:0.092105277 2616:0.088292189 2628:0.084052958 2643:0.24573012 2651:0.076725401 2663:0.11791384 2759:0.11044803 2767:0.12924828 2788:0.10041916 2899:0.12286506 2915:0.12286506 3035:0.12924828 3038:0.11791384 #
0.11026991131635609 3:0.035460301 4:0.02716356 8:0.01453926 10:0.00142466 28:0.01546687 35:0.040707801 39:0.02432601 43:0.02776839 48:0.039194409 52:0.061718121 57:0.029526509 60:0.10975656 70:0.02033188 83:0.026834421 90:0.11038041 136:0.02045176 139:0.0282938 180:0.024487039 187:0.62128979 198:0.01729569 214:0.045447011 239:0.01356158 246:0.0166432 267:0.03141059 268:0.034591369 275:0.083024658 276:0.058297779 287:0.092202976 291:0.094231762 320:0.030882111 344:0.02424621 381:0.034926649 387:0.079190403 398:0.02687094 405:0.13632503 406:0.098041497 412:0.045830321 422:0.024649991 433:0.068826281 444:0.032101419 461:0.036206052 474:0.056480888 507:0.02532205 509:0.035460301 587:0.05658761 596:0.02929391 617:0.034926649 633:0.04153268 695:0.042111769 702:0.045447011 710:0.042111769 750:0.036399052 779:0.034246191 843:0.049361341 848:0.072307236 852:0.030753139 858:0.046224739 859:0.02138621 861:0.059306119 877:0.03659483 885:0.049361341 890:0.03182086 896:0.03282921 981:0.11131201 987:0.04838904 991:0.098722689 1015:0.049361341 1040:0.060395218 1145:0.080887169 1156:0.07936082 1207:0.039194409 1215:0.040184408 1217:0.04663093 1231:0.04097724 1234:0.032979559 1291:0.061579142 1386:0.040443592 1467:0.04792776 1488:0.055656001 1830:0.062875971 1860:0.064309552 1903:0.41718295 1945:0.047049619 1949:0.079257756 1998:0.050408509 2022:0.05414262 2132:0.04838904 2218:0.036206052 2244:0.20318714 2245:0.084774688 2246:0.072307236 2247:0.20947947 2248:0.084774688 2252:0.22603028 2253:0.07534343 2255:0.062875971 2256:0.067729048 2257:0.079257756 2258:0.079257756 2260:0.079257756 2261:0.05414262 #
1.0000000026399696 10:0.00462399 20:0.033485081 22:0.043607339 45:0.042241059 53:0.0731484 54:0.090801768 57:0.095833808 67:0.27009311 74:0.056965418 80:0.087541297 83:0.04354807 86:0.17889291 101:0.02700931 121:0.12244792 145:0.06983 147:0.13042603 181:0.036222439 188:0.044404581 209:0.06480027 229:0.039968409 239:0.044016641 242:0.041517019 266:0.057842929 282:0.05612145 289:0.06899631 294:0.061048709 295:0.19320373 297:0.086732402 298:0.058143351 299:0.12960055 300:0.060369238 301:0.084627837 302:0.031862851 303:0.060037181 304:0.21393026 305:0.093084738 306:0.13757607 307:0.058756761 308:0.12227061 309:0.05612145 310:0.10991366 311:0.077055231 312:0.098012 313:0.093084738 314:0.06139645 315:0.05032815 316:0.13757607 317:0.06174976 318:0.10203787 319:0.08364629 320:0.15035053 321:0.12862295 322:0.365742 323:0.21845363 324:0.0731484 325:0.11734334 326:0.14548644 328:0.22312634 329:0.078527853 330:0.078527853 331:0.13757607 332:0.067865938 333:0.10696513 334:0.058756761 335:0.091659658 336:0.084627837 337:0.073753402 338:0.093084738 339:0.15555853 340:0.11734334 341:0.25277445 342:0.06139645 343:0.03177103 344:0.039347801 345:0.053035349 346:0.073753402 347:0.12227061 348:0.093084738 #
1.0000000026399696 3:0.04224056 10:0.00169706 22:0.032008849 25:0.018325111 26:0.039649721 28:0.018424241 29:0.066402324 32:0.069161728 36:0.089119911 62:0.024798401 67:0.21808045 69:0.066297822 76:0.081523679 82:0.064798728 83:0.01598268 86:0.052524708 93:0.02227887 96:0.03111439 99:0.02796109 100:0.02618192 105:0.02234206 121:0.14979962 126:0.026343189 136:0.048724558 147:0.04786795 148:0.038929239 153:0.044312499 158:0.071481891 179:0.035454068 188:0.032594051 198:0.02060274 209:0.095129967 224:0.046688661 228:0.03422248 229:0.0146689 239:0.12923717 242:0.12189804 246:0.01982549 248:0.044312499 257:0.0295597 289:0.025322489 294:0.044811249 295:0.035454068 298:0.085357293 302:0.02338811 303:0.044068761 311:0.056560431 312:0.14388642 320:0.11036097 322:0.32215631 323:0.16035031 324:0.053692721 326:0.07119374 341:0.10602436 342:0.045066498 343:0.02332072 344:0.02888225 345:0.038929239 382:0.05052007 391:0.03047451 456:0.054593399 471:0.032008849 482:0.044068761 487:0.024506349 499:0.065371387 507:0.0301638 511:0.15119705 609:0.097624756 616:0.10652095 648:0.04786795 680:0.023253599 716:0.08279679 748:0.04786795 752:0.073884189 753:0.076478861 773:0.066297822 776:0.050163832 787:0.036786988 817:0.068326481 819:0.035033051 845:0.044811249 884:0.047267579 891:0.044559948 902:0.070645869 904:0.069444723 951:0.046129711 977:0.04267865 1001:0.14269497 1003:0.062872909 1007:0.052839462 1009:0.046129711 1057:0.033201162 1118:0.05941128 1137:0.054593399 1158:0.05242911 1164:0.13133667 1169:0.049139831 1196:0.053260479 1202:0.05941128 1224:0.044559948 1234:0.078570962 1239:0.094332159 1358:0.044811249 1384:0.05941128 1385:0.068326481 1386:0.048176691 1391:0.066297822 1411:0.067280427 1465:0.12121116 1512:0.069444723 1627:0.25442156 1655:0.063663699 1661:0.073353499 1686:0.1091868 1691:0.4010396 1749:0.056560431 1835:0.071943209 1853:0.056045841 1874:0.061398432 1907:0.056045841 1914:0.089749619 1990:0.044068761 1998:0.060046971 2044:0.044559948 2061:0.068326481 2150:0.063663699 2204:0.048812378 2239:0.03047451 2240:0.056830261 2241:0.074898288 2279:0.061398432 2759:0.080679312 2903:0.071943209 3024:0.074898288 3027:0.063663699 4160:0.089749619 4161:0.089749619 4162:0.10098421 4165:0.10098421 4166:0.089749619 4167:0.080679312 #
1.0000000026399696 7:0.037395801 9:0.057002049 10:0.00190434 25:0.041126762 29:0.037256431 32:0.10347906 43:0.074236229 62:0.05565466 67:0.066741079 75:0.078314558 92:0.018421169 93:0.02500006 96:0.1047443 117:0.05239132 120:0.0274186 126:0.02956081 136:0.02733794 147:0.053714652 179:0.079569012 208:0.065981492 220:0.070552342 228:0.03840249 229:0.03292118 239:0.01812781 240:0.058383811 289:0.056830872 302:0.052489571 322:0.18075261 323:0.11245991 324:0.060250871 342:0.050571021 344:0.064819992 368:0.05589981 432:0.04865475 437:0.10932573 459:0.040269539 482:0.049451418 511:0.096951187 539:0.055516891 577:0.08596281 585:0.049451418 673:0.056290962 683:0.072372638 879:0.049181972 882:0.13476248 887:0.071439728 923:0.06738124 1042:0.075498223 1156:0.053040951 1164:0.036844611 1234:0.13225168 1239:0.035284702 1251:0.053714652 1347:0.18667465 1396:0.21216381 1485:0.06738124 1515:0.06738124 1627:0.057099439 1635:0.071439728 1639:0.10291681 1660:0.08810503 1686:0.18378466 1691:0.35001826 1891:0.075498223 1892:0.1933067 1893:0.084046543 1924:0.077926859 1951:0.090533666 1952:0.080730513 1953:0.45298928 1954:0.084046543 1955:0.090533666 1956:0.14474528 1957:0.084046543 1959:0.079274721 1960:0.090533666 1961:0.20142367 1962:0.10071184 1963:0.076672032 1964:0.075498223 1965:0.24219154 1966:0.09665335 1968:0.093337327 #
1.0000000026399696 8:0.039028581 10:0.0038242899 28:0.041518629 92:0.07398653 109:0.18845391 132:0.12865531 136:0.10979973 302:0.052704591 432:0.097708121 458:0.078021497 596:0.07863538 637:0.36361814 683:0.14533824 819:0.078946218 1231:0.10999763 1691:0.20082977 1848:0.29067647 1963:0.30794445 1965:0.16212244 2018:0.1494007 3619:0.18743937 3771:0.16212244 3885:0.18180908 3886:0.60674644 #
1.0000000026399696 10:0.0030956301 19:0.14882693 52:0.044702388 67:0.10849191 70:0.044179089 74:0.076273531 76:0.049569499 86:0.095811069 94:0.092154384 110:0.075515397 118:0.044702388 121:0.10930065 134:0.071011387 136:0.088879161 178:0.099584602 181:0.048499841 206:0.095636688 207:0.067960702 209:0.086763971 228:0.062425721 239:0.02946792 240:0.094906643 242:0.05558899 246:0.036163971 289:0.092382237 299:0.086763971 302:0.04266258 322:0.48970827 323:0.10968649 324:0.097941652 341:0.04835014 387:0.05735755 459:0.065460727 461:0.078672037 471:0.058387809 499:0.23848979 511:0.039400101 547:0.095636688 582:0.079516828 586:0.094194189 753:0.069753088 779:0.074413463 787:0.067103669 859:0.046470039 1069:0.06767226 1163:0.094906643 1164:0.11978656 1169:0.089636661 1239:0.05735755 1259:0.10725715 1344:0.077850729 1448:0.21236385 1473:0.15172581 1529:0.10414213 1556:0.12886614 1639:0.16729788 1686:0.1991692 1691:0.24384736 1726:0.13380517 2044:0.081282452 2622:0.10414213 2712:0.13662305 2724:0.15172581 2754:0.23848979 3425:0.1227272 4039:0.15711623 #
-1.0000000026399696 10:0.0030956301 19:0.14882693 52:0.044702388 67:0.10849191 70:0.044179089 74:0.076273531 76:0.049569499 86:0.095811069 94:0.092154384 110:0.075515397 118:0.044702388 121:0.10930065 134:0.071011387 136:0.088879161 178:0.099584602 181:0.048499841 206:0.095636688 207:0.067960702 209:0.086763971 228:0.062425721 239:0.02946792 240:0.094906643 242:0.05558899 246:0.036163971 289:0.092382237 299:0.086763971 302:0.04266258 322:0.48970827 323:0.10968649 324:0.097941652 341:0.04835014 387:0.05735755 459:0.065460727 461:0.078672037 471:0.058387809 499:0.23848979 511:0.039400101 547:0.095636688 582:0.079516828 586:0.094194189 753:0.069753088 779:0.074413463 787:0.067103669 859:0.046470039 1069:0.06767226 1163:0.094906643 1164:0.11978656 1169:0.089636661 1239:0.05735755 1259:0.10725715 1344:0.077850729 1448:0.21236385 1473:0.15172581 1529:0.10414213 1556:0.12886614 1639:0.16729788 1686:0.1991692 1691:0.24384736 1726:0.13380517 2044:0.081282452 2622:0.10414213 2712:0.13662305 2724:0.15172581 2754:0.23848979 3425:0.1227272 4039:0.15711623 #
-0.49065810310631969 7:0.037395801 9:0.057002049 10:0.00190434 25:0.041126762 29:0.037256431 32:0.10347906 43:0.074236229 62:0.05565466 67:0.066741079 75:0.078314558 92:0.018421169 93:0.02500006 96:0.1047443 117:0.05239132 120:0.0274186 126:0.02956081 136:0.02733794 147:0.053714652 179:0.079569012 208:0.065981492 220:0.070552342 228:0.03840249 229:0.03292118 239:0.01812781 240:0.058383811 289:0.056830872 302:0.052489571 322:0.18075261 323:0.11245991 324:0.060250871 342:0.050571021 344:0.064819992 368:0.05589981 432:0.04865475 437:0.10932573 459:0.040269539 482:0.049451418 511:0.096951187 539:0.055516891 577:0.08596281 585:0.049451418 673:0.056290962 683:0.072372638 879:0.049181972 882:0.13476248 887:0.071439728 923:0.06738124 1042:0.075498223 1156:0.053040951 1164:0.036844611 1234:0.13225168 1239:0.035284702 1251:0.053714652 1347:0.18667465 1396:0.21216381 1485:0.06738124 1515:0.06738124 1627:0.057099439 1635:0.071439728 1639:0.10291681 1660:0.08810503 1686:0.18378466 1691:0.35001826 1891:0.075498223 1892:0.1933067 1893:0.084046543 1924:0.077926859 1951:0.090533666 1952:0.080730513 1953:0.45298928 1954:0.084046543 1955:0.090533666 1956:0.14474528 1957:0.084046543 1959:0.079274721 1960:0.090533666 1961:0.20142367 1962:0.10071184 1963:0.076672032 1964:0.075498223 1965:0.24219154 1966:0.09665335 1968:0.093337327 #
-0.67816199621066309 3:0.04224056 10:0.00169706 22:0.032008849 25:0.018325111 26:0.039649721 28:0.018424241 29:0.066402324 32:0.069161728 36:0.089119911 62:0.024798401 67:0.21808045 69:0.066297822 76:0.081523679 82:0.064798728 83:0.01598268 86:0.052524708 93:0.02227887 96:0.03111439 99:0.02796109 100:0.02618192 105:0.02234206 121:0.14979962 126:0.026343189 136:0.048724558 147:0.04786795 148:0.038929239 153:0.044312499 158:0.071481891 179:0.035454068 188:0.032594051 198:0.02060274 209:0.095129967 224:0.046688661 228:0.03422248 229:0.0146689 239:0.12923717 242:0.12189804 246:0.01982549 248:0.044312499 257:0.0295597 289:0.025322489 294:0.044811249 295:0.035454068 298:0.085357293 302:0.02338811 303:0.044068761 311:0.056560431 312:0.14388642 320:0.11036097 322:0.32215631 323:0.16035031 324:0.053692721 326:0.07119374 341:0.10602436 342:0.045066498 343:0.02332072 344:0.02888225 345:0.038929239 382:0.05052007 391:0.03047451 456:0.054593399 471:0.032008849 482:0.044068761 487:0.024506349 499:0.065371387 507:0.0301638 511:0.15119705 609:0.097624756 616:0.10652095 648:0.04786795 680:0.023253599 716:0.08279679 748:0.04786795 752:0.073884189 753:0.076478861 773:0.066297822 776:0.050163832 787:0.036786988 817:0.068326481 819:0.035033051 845:0.044811249 884:0.047267579 891:0.044559948 902:0.070645869 904:0.069444723 951:0.046129711 977:0.04267865 1001:0.14269497 1003:0.062872909 1007:0.052839462 1009:0.046129711 1057:0.033201162 1118:0.05941128 1137:0.054593399 1158:0.05242911 1164:0.13133667 1169:0.049139831 1196:0.053260479 1202:0.05941128 1224:0.044559948 1234:0.078570962 1239:0.094332159 1358:0.044811249 1384:0.05941128 1385:0.068326481 1386:0.048176691 1391:0.066297822 1411:0.067280427 1465:0.12121116 1512:0.069444723 1627:0.25442156 1655:0.063663699 1661:0.073353499 1686:0.1091868 1691:0.4010396 1749:0.056560431 1835:0.071943209 1853:0.056045841 1874:0.061398432 1907:0.056045841 1914:0.089749619 1990:0.044068761 1998:0.060046971 2044:0.044559948 2061:0.068326481 2150:0.063663699 2204:0.048812378 2239:0.03047451 2240:0.056830261 2241:0.074898288 2279:0.061398432 2759:0.080679312 2903:0.071943209 3024:0.074898288 3027:0.063663699 4160:0.089749619 4161:0.089749619 4162:0.10098421 4165:0.10098421 4166:0.089749619 4167:0.080679312 #
-0.60364601706224219 9:0.22729801 10:0.0030374599 29:0.17827381 38:0.1065259 40:0.097275957 41:0.27651408 67:0.03548437 70:0.043348871 74:0.074840181 76:0.097275957 80:0.03833675 87:0.14545709 90:0.078446038 153:0.079312056 168:0.076787882 183:0.090422601 229:0.026254909 281:0.17710069 307:0.077193618 309:0.073731393 311:0.10123384 371:0.19220223 378:0.040445458 424:0.087952189 458:0.06196893 487:0.087724663 642:0.09771318 680:0.083240218 714:0.096895948 793:0.08020474 819:0.062703393 852:0.13113534 896:0.06999398 907:0.10031281 923:0.10747418 953:0.10865842 1057:0.059424601 1079:0.098554097 1083:0.076387741 1086:0.10316854 1180:0.075993039 1337:0.17956999 1398:0.10316854 1573:0.11866217 1654:0.10989306 1665:0.10316854 1678:0.11543554 1891:0.12042088 2247:0.14887455 2288:0.26258135 2387:0.12876648 2710:0.09942013 2806:0.10316854 4457:0.36126265 5309:0.1807451 5875:0.33796525 #
-0.78358459807010883 10:0.00352835 25:0.038099598 26:0.082435429 62:0.10311631 67:0.1236571 120:0.10160172 136:0.05065142 181:0.055279229 228:0.071151704 229:0.030497991 287:0.045670521 289:0.052647799 302:0.048626039 322:0.33489633 323:0.12501866 324:0.11163211 459:0.074610949 511:0.089815028 619:0.10357052 653:0.10081813 838:0.093166716 882:0.12484319 1239:0.06537509 1253:0.45752606 1333:0.096483961 1639:0.095341541 1645:0.096483961 1686:0.11350471 1691:0.37057701 1890:0.13236271 1891:0.27976444 1892:0.17907822 1893:0.46716139 #
1.0000000026399696 5:0.06204997 6:0.067271233 9:0.06954059 10:0.00232324 14:0.3067354 17:0.096331201 21:0.077547818 22:0.043819342 23:0.11624829 25:0.075259902 28:0.025222341 32:0.031560238 38:0.040738769 41:0.042298991 45:0.04244642 48:0.063915648 62:0.03394841 82:0.0591386 92:0.089892827 93:0.03049924 99:0.076556109 101:0.05428125 103:0.095166638 108:0.12000069 118:0.033548601 126:0.10818958 127:0.058732089 133:0.0566734 139:0.046139661 148:0.15987957 152:0.097071521 172:0.10041916 181:0.036398541 209:0.065115318 224:0.063915648 229:0.02008136 236:0.10748517 239:0.02211532 291:0.051222298 302:0.032017749 386:0.05782631 434:0.088272661 437:0.044457909 469:0.085488521 470:0.050572831 475:0.074872233 488:0.11808484 509:0.05782631 537:0.076042622 624:0.06134551 640:0.042298991 721:0.05967642 727:0.093537301 749:0.073504031 755:0.075380228 756:0.053293191 779:0.055846401 782:0.15432924 801:0.14387821 813:0.09848851 825:0.1138684 838:0.06134551 859:0.03487521 861:0.096712492 884:0.12941635 893:0.10253395 894:0.093537301 901:0.12286506 922:0.0706916 1017:0.089491859 1018:0.10748517 1038:0.074737042 1042:0.092105277 1163:0.071226291 1175:0.095068142 1246:0.25849658 1247:0.089491859 1387:0.068673082 1509:0.07815741 1549:0.12286506 1746:0.093537301 2024:0.089491859 2152:0.095068142 2204:0.066822961 2210:0.093537301 2402:0.2301762 2466:0.09848851 2470:0.10253395 2485:0.088292189 2490:0.10487174 2495:0.092105277 2616:0.088292189 2628:0.084052958 2643:0.24573012 2651:0.076725401 2663:0.11791384 2759:0.11044803 2767:0.12924828 2788:0.10041916 2899:0.12286506 2915:0.12286506 3035:0.12924828 3038:0.11791384 #
0.68835561336890783 4:0.036902431 8:0.01975197 9:0.11586534 10:0.00193543 12:0.051992979 14:0.21902934 17:0.10700175 19:0.046524361 21:0.064603306 23:0.096843779 25:0.0417982 28:0.042024311 36:0.05081895 38:0.033938538 39:0.033047538 40:0.03099156 74:0.0476873 80:0.048855469 83:0.018227641 92:0.1497753 96:0.070969567 101:0.02261023 107:0.05110554 111:0.02548028 118:0.083845712 120:0.05573247 126:0.090130262 134:0.044397332 136:0.11113704 139:0.038437892 148:0.088794671 152:0.040434029 163:0.079199091 171:0.063349359 180:0.099798881 181:0.03032279 190:0.053906899 201:0.038292911 206:0.05979342 219:0.19571342 224:0.053246658 234:0.051992979 240:0.05933699 257:0.067423463 263:0.04817377 279:0.053573828 287:0.050104089 291:0.04267212 302:0.026673259 320:0.041954178 338:0.077923782 343:0.026596401 378:0.025771379 386:0.04817377 404:0.13147561 413:0.067756332 428:0.07002259 436:0.072606049 437:0.037036858 444:0.043610629 452:0.068481311 457:0.071704179 458:0.03948589 459:0.040926982 475:0.031187169 480:0.054246079 487:0.02794857 497:0.050258759 509:0.096347541 511:0.024633501 530:0.075610168 531:0.06074157 561:0.09201172 587:0.038437892 619:0.056812432 644:0.14340836 667:0.0584566 673:0.057209961 681:0.05604212 687:0.058031641 733:0.050536729 748:0.10918319 756:0.044397332 762:0.10338481 766:0.14168856 768:0.075610168 769:0.34167475 780:0.13022229 782:0.042856049 783:0.071704179 790:0.063349359 795:0.07002259 804:0.098231308 808:0.0836569 809:0.11208424 810:0.072606049 811:0.066386461 819:0.15981552 826:0.1673138 838:0.05110554 842:0.072606049 843:0.067058712 844:0.063349359 882:0.068481311 907:0.063918173 986:0.050536729 1007:0.060261421 1009:0.05260919 1050:0.071704179 1146:0.071704179 1222:0.061234519 1255:0.055302631 1383:0.13696262 1387:0.057209961 1464:0.07002259 1547:0.056423262 1596:0.053573828 1625:0.07084427 1704:0.10767378 1786:0.068481311 1800:0.077923782 1822:0.09486115 2143:0.10235606 2214:0.087366238 2306:0.074553609 2466:0.08204852 2467:0.087366238 2469:0.09201172 2470:0.085418679 2471:0.11516869 2472:0.09486115 2473:0.09201172 2474:0.08204852 2475:0.09201172 2476:0.09486115 2477:0.10767378 2479:0.09486115 2480:0.087366238 2481:0.098231308 2482:0.11516869 2483:0.075610168 2485:0.073554203 2486:0.08204852 #
-0.7828966131409999 10:0.0023276 29:0.04553704 32:0.031619579 40:0.18635628 76:0.074542508 82:0.059249781 83:0.021921029 87:0.074309133 101:0.02719165 117:0.12807164 168:0.11768502 176:0.067397714 180:0.04000691 203:0.05339339 229:0.020119119 237:0.084210992 239:0.0221569 246:0.02719165 260:0.05946875 268:0.14128843 275:0.033911411 326:0.04882288 328:0.07487756 329:0.63246393 336:0.085199162 429:0.056779951 468:0.079057992 536:0.063269183 545:0.092278451 547:0.07190913 548:0.06929078 697:0.084210992 779:0.055951402 796:0.04882288 836:0.12309606 859:0.1397631 947:0.098673679 1010:0.065237738 1048:0.084210992 1113:0.060113151 1131:0.09093076 1174:0.089660108 1219:0.092278451 1239:0.043127079 1434:0.082742304 1449:0.17932022 1456:0.067397714 1484:0.081485517 1488:0.09093076 1511:0.089660108 1528:0.11813553 2355:0.20545346 2565:0.1818615 3334:0.11813553 4220:0.095246881 4935:0.32306176 4941:0.10768725 5276:0.11813553 6049:0.13850486 #
0.34359691662856368 2:0.065773778 4:0.066967659 7:0.068970919 8:0.035844341 9:0.052565861 10:0.0035122801 12:0.094352819 13:0.08697772 14:0.13249248 17:0.048544619 18:0.088791378 21:0.058618542 23:0.087872289 25:0.075852133 38:0.18476708 39:0.059972111 40:0.05624108 41:0.12789553 46:0.22224732 62:0.051323321 92:0.1359003 115:0.086106382 148:0.080568843 158:0.073970273 163:0.14372437 176:0.10170089 229:0.03035908 239:0.10030206 257:0.061177429 288:0.1010232 350:0.094907291 397:0.10768016 437:0.26884651 469:0.064620927 470:0.076456189 475:0.056596059 567:0.11599374 596:0.072219707 698:0.11599374 745:0.12169294 747:0.13012318 749:0.11112366 751:0.17214666 752:0.076456189 754:0.11496151 755:0.11396011 756:0.16113769 768:0.13721147 769:0.46503362 780:0.11815866 790:0.11496151 819:0.072505198 943:0.11396011 996:0.15854548 1002:0.17826258 1003:0.13012318 1004:0.14372437 1005:0.13348044 1006:0.13721147 1007:0.10935775 1008:0.12427457 1009:0.095471077 #
0.44586005666884254 2:0.17033032 4:0.02890368 8:0.01547065 10:0.00151592 14:0.028592311 15:0.033566829 20:0.02195538 24:0.041705228 28:0.01645769 54:0.059536591 76:0.072822042 80:0.01913292 83:0.12849052 86:0.093836702 87:0.048396029 92:0.058655448 111:0.01995733 126:0.02353139 133:0.036979631 139:0.030106319 149:0.050523311 152:0.031669792 181:0.11875101 187:0.12019817 190:0.12666707 201:0.02999277 209:0.04248802 229:0.01310317 239:0.043291021 263:0.037731908 268:0.05521097 287:0.11773147 299:0.08497604 357:0.040487871 361:0.22195394 387:0.05617559 391:0.027221739 406:0.034774031 411:0.06103348 414:0.13034903 437:0.02900897 456:0.048766229 459:0.032055888 469:0.027890811 475:0.02442722 503:0.044809472 509:0.037731908 533:0.10479679 541:0.035417609 561:0.072067797 640:0.05520054 653:0.04331556 673:0.089618944 687:0.045453049 690:0.096716747 698:0.20025459 714:0.04835837 728:0.081446581 756:0.034774031 757:0.048766229 762:0.040487871 818:0.07218226 842:0.0568684 845:0.28019744 854:0.046475451 859:0.022756221 870:0.053637709 875:0.05548849 877:0.2336347 884:0.042222358 885:0.10504692 886:0.0327232 905:0.090906098 934:0.05422873 939:0.088996209 982:0.12206696 1091:0.06552393 1095:0.23787792 1153:0.05548849 1233:0.044809472 1301:0.23416477 1374:0.11522205 1377:0.074328139 1435:0.053637709 1449:0.11678763 1536:0.13104786 1580:0.21040358 1592:0.05548849 1637:0.063105308 1877:0.084335051 1982:0.40050918 2244:0.072067797 2361:0.049618129 2784:0.22289883 2988:0.063105308 3123:0.10024085 #
-1.0000000026399696 8:0.027708311 10:0.00271505 12:0.072936401 14:0.10241903 21:0.27187899 23:0.067926839 25:0.087952547 28:0.029476119 92:0.02626333 93:0.035642959 105:0.03574406 126:0.042145278 127:0.068637311 136:0.077952221 139:0.053921148 186:0.068999983 198:0.065922797 219:0.068637311 230:0.088867277 233:0.099381231 234:0.072936401 283:0.07336501 291:0.059860978 302:0.037417579 365:0.082003653 384:0.086611018 458:0.0553913 469:0.049953122 475:0.174999 487:0.039206602 515:0.098228566 525:0.085900553 527:0.085900553 599:0.14338298 687:0.08140751 727:0.10931245 756:0.062281139 760:0.13780013 782:0.24047601 808:0.11735495 826:0.11735495 884:0.07562127 919:0.10606689 922:0.082613811 953:0.097124979 977:0.068279639 1030:0.073800832 1038:0.34936604 1247:0.10458474 1249:0.22220296 1258:0.088867277 1284:0.11509869 1359:0.094070792 1532:0.092217818 1642:0.11509869 1779:0.10058752 1827:0.10606689 1888:0.10458474 1997:0.098228566 2145:0.12255846 2220:0.12255846 2511:0.10763893 2616:0.30954823 2628:0.098228566 3029:0.14358637 3446:0.12255846 3556:0.13780013 3769:0.12907518 3770:0.12561265 3771:0.23019738 #
-1.0000000026399696 4:0.04444493 6:0.13499318 7:0.045774441 8:0.071367241 9:0.13954709 10:0.0023310201 17:0.064435937 20:0.0337606 21:0.038903799 26:0.054461341 27:0.067955628 28:0.025306839 35:0.066605963 38:0.24525149 39:0.079604268 40:0.037325941 41:0.16976276 61:0.093850642 74:0.05743413 82:0.02966835 83:0.10976597 87:0.037209071 92:0.022548489 126:0.036184002 188:0.044769939 191:0.02417515 219:0.05892884 246:0.027231541 267:0.051393889 268:0.02829914 332:0.068424337 370:0.092413828 382:0.069392443 391:0.041858621 398:0.087932281 422:0.040332232 424:0.06749659 444:0.05252422 516:0.074360237 549:0.066173658 617:0.11429372 667:0.21121368 674:0.30792972 685:0.04812007 695:0.068903133 698:0.076982431 728:0.062619843 775:0.067046821 810:0.087446027 828:0.11081803 831:0.34288117 838:0.06155102 839:0.085324161 842:0.087446027 853:0.065333448 854:0.071464904 856:0.058020022 886:0.050318182 891:0.061205849 905:0.069892749 915:0.082478233 920:0.085324161 978:0.061901622 1083:0.05862176 1095:0.073156558 1128:0.092413828 1186:0.071464904 1314:0.10075557 1321:0.085324161 1603:0.10784524 1621:0.08338704 1876:0.11081803 2489:0.089791648 2500:0.11081803 2622:0.078419238 2672:0.11424985 2701:0.18212833 2824:0.088587962 2842:0.23661768 2861:0.11830885 2862:0.077689238 3220:0.12327665 3690:0.2465533 3758:0.12968126 4072:0.13870806 4073:0.12327665 4075:0.10784524 4078:0.11830885 #
-1.0000000026399696 3:0.036912411 10:0.001483 14:0.22377051 19:0.035648581 34:0.086466923 39:0.17725518 40:0.21372129 45:0.02709493 52:0.021415159 53:0.046920009 54:0.087365277 55:0.03617648 63:0.02858722 65:0.050370589 68:0.074590482 75:0.060987011 76:0.047493622 82:0.018875049 83:0.055866599 86:0.34424502 87:0.14203475 92:0.028690759 96:0.02718967 105:0.01952387 111:0.01952387 117:0.040799439 126:0.046040621 139:0.088357329 180:0.02548979 191:0.10766183 198:0.01800395 219:0.037490599 223:0.037688699 234:0.039838821 239:0.01411693 242:0.02663051 246:0.01732474 248:0.154892 258:0.072685897 266:0.037102532 268:0.0720158 274:0.058793802 275:0.02160614 281:0.043233462 287:0.11517447 291:0.032696862 294:0.03915884 307:0.075377397 317:0.19804257 319:0.053653739 329:0.050370589 361:0.32570004 365:0.044791471 384:0.094616167 391:0.02663051 398:0.027971311 406:0.034018781 414:0.0318795 422:0.051318832 459:0.031359669 482:0.077020019 533:0.034173571 535:0.037295241 548:0.044147559 561:0.070502572 589:0.046920009 596:0.030493511 599:0.03915884 601:0.07842876 674:0.048976321 680:0.040640868 691:0.02467085 702:0.04730808 717:0.077020019 779:0.035648581 792:0.050370589 818:0.10592181 849:0.04209977 853:0.083130449 893:0.065450758 987:0.050370589 997:0.070502572 1000:0.072685897 1035:0.053653739 1042:0.058793802 1076:0.04031099 1148:0.049890421 1206:0.062868416 1233:0.087672517 1287:0.056359779 1296:0.15053648 1301:0.045815799 1308:0.10988446 1312:0.082503393 1313:0.041565228 1346:0.046542302 1376:0.066943049 1377:0.036356911 1426:0.10610188 1437:0.044465858 1462:0.050370589 1570:0.12820163 1644:0.052472752 1657:0.070502572 1691:0.038939241 1694:0.053050939 1695:0.31371504 1732:0.057935141 1782:0.058793802 1810:0.068611279 1904:0.061734729 1945:0.048976321 1990:0.03851001 1991:0.05563328 2209:0.057125561 2311:0.082503393 2314:0.046920009 2359:0.053653739 2396:0.11425113 2608:0.042374801 2626:0.043836258 2867:0.082503393 2988:0.061734729 3704:0.068611279 4437:0.082503393 4551:0.14537181 4552:0.072685897 4814:0.088246241 4816:0.09806373 4817:0.088246241 #
-1.0000000026399696 5:0.050606031 8:0.019336861 9:0.17014545 10:0.0037895199 14:0.21442619 21:0.031622801 25:0.061379641 27:0.055237461 28:0.020570559 29:0.0370689 39:0.16176502 41:0.034497742 52:0.027361199 83:0.03568913 87:0.060490489 92:0.018328451 105:0.02494478 111:0.074834347 120:0.02728059 125:0.041420478 134:0.086928546 136:0.13600171 148:0.043464269 159:0.058089949 181:0.02968552 188:0.036391061 189:0.048934419 190:0.052773979 191:0.01965067 194:0.077534631 208:0.06564939 223:0.048153169 229:0.01637774 239:0.01803657 242:0.034024611 268:0.069008529 308:0.3006148 368:0.05561845 378:0.10091908 389:0.042694099 398:0.035737701 414:0.16292405 428:0.068550989 434:0.035996221 437:0.18129244 459:0.040066861 461:0.048153169 492:0.052127618 537:0.062018 609:0.10899748 612:0.078875713 624:0.050031502 648:0.053444289 663:0.058536801 667:0.057228059 673:0.056007631 674:0.062574863 680:0.025962509 708:0.040562671 711:0.29684788 717:0.04920252 728:0.25450143 756:0.086928546 762:0.050606031 852:0.040900931 890:0.04232097 896:0.043662049 959:0.04790007 993:0.090077989 997:0.090077989 1000:0.092867538 1025:0.04599344 1029:0.062574863 1043:0.077534631 1130:0.05561845 1186:0.11617991 1233:0.11201526 1344:0.04765046 1377:0.046451598 1437:0.056812041 1449:0.072986782 1613:0.060953211 1738:0.077534631 1834:0.063742757 1874:0.068550989 2163:0.08032418 2261:0.072008371 2320:0.07019724 2338:0.072986782 2359:0.068550989 2608:0.054140382 2626:0.44806105 2755:0.077534631 2838:0.090077989 3100:0.22549658 3101:0.10020493 3102:0.08032418 3103:0.087661572 #
1.0000000026399696 10:0.00352835 25:0.038099598 26:0.082435429 62:0.10311631 67:0.1236571 120:0.10160172 136:0.05065142 181:0.055279229 228:0.071151704 229:0.030497991 287:0.045670521 289:0.052647799 302:0.048626039 322:0.33489633 323:0.12501866 324:0.11163211 459:0.074610949 511:0.089815028 619:0.10357052 653:0.10081813 838:0.093166716 882:0.12484319 1239:0.06537509 1253:0.45752606 1333:0.096483961 1639:0.095341541 1645:0.096483961 1686:0.11350471 1691:0.37057701 1890:0.13236271 1891:0.27976444 1892:0.17907822 1893:0.46716139 #
1.0000000026399696 10:0.0024963999 17:0.034503751 41:0.045451742 45:0.091220327 54:0.049022019 57:0.051738709 63:0.048122201 67:0.087490641 76:0.079948217 80:0.094523512 82:0.12709299 84:0.06785737 134:0.057265401 137:0.069531202 139:0.04957867 158:0.052575368 198:0.030306891 201:0.049391668 229:0.021578129 246:0.058327101 268:0.030306891 283:0.1349133 287:0.03231309 292:0.057265401 302:0.0344042 320:0.054114118 322:0.3159306 323:0.088453978 324:0.078982651 342:0.066293381 363:0.059434369 419:0.18834245 429:0.060897551 487:0.03604915 511:0.031773239 516:0.079635903 535:0.06278082 541:0.058325231 596:0.05133114 650:0.073791623 722:0.068679601 740:0.085627817 801:0.05153406 859:0.11242388 890:0.055759069 912:0.21124303 951:0.06785737 1069:0.054572642 1164:0.38639575 1180:0.12491285 1274:0.072285287 1324:0.098970354 1359:0.086494908 1407:0.067456648 1465:0.11886875 2218:0.063443139 2271:0.35721251 2367:0.10050909 2389:0.092486821 3947:0.33806506 4111:0.12670255 4114:0.36706674 #
-1.0000000026399696 10:0.0024963999 17:0.034503751 41:0.045451742 45:0.091220327 54:0.049022019 57:0.051738709 63:0.048122201 67:0.087490641 76:0.079948217 80:0.094523512 82:0.12709299 84:0.06785737 134:0.057265401 137:0.069531202 139:0.04957867 158:0.052575368 198:0.030306891 201:0.049391668 229:0.021578129 246:0.058327101 268:0.030306891 283:0.1349133 287:0.03231309 292:0.057265401 302:0.0344042 320:0.054114118 322:0.3159306 323:0.088453978 324:0.078982651 342:0.066293381 363:0.059434369 419:0.18834245 429:0.060897551 487:0.03604915 511:0.031773239 516:0.079635903 535:0.06278082 541:0.058325231 596:0.05133114 650:0.073791623 722:0.068679601 740:0.085627817 801:0.05153406 859:0.11242388 890:0.055759069 912:0.21124303 951:0.06785737 1069:0.054572642 1164:0.38639575 1180:0.12491285 1274:0.072285287 1324:0.098970354 1359:0.086494908 1407:0.067456648 1465:0.11886875 2218:0.063443139 2271:0.35721251 2367:0.10050909 2389:0.092486821 3947:0.33806506 4111:0.12670255 4114:0.36706674 #
-1.0000000026399696 1:0.03312983 7:0.1625485 10:0.0016555201 17:0.02288169 22:0.06245083 23:0.041418929 25:0.035753179 33:0.071558118 36:0.043469321 40:0.02650944 41:0.03014202 47:0.061334051 67:0.11604151 70:0.04725337 76:0.079528332 80:0.0208949 82:0.042141829 83:0.03118298 86:0.02561957 92:0.01601428 105:0.043590449 121:0.058453269 147:0.14008905 158:0.034866162 160:0.078455389 177:0.13330828 180:0.02845519 198:0.10049239 201:0.065509692 223:0.042073291 229:0.01430987 242:0.05945725 246:0.058020759 252:0.041418929 268:0.040196959 281:0.04826311 294:0.04371446 295:0.10375892 302:0.045631342 317:0.04421645 320:0.035886601 322:0.26189277 323:0.15642563 324:0.05237855 341:0.025857341 342:0.04396347 344:0.028175339 363:0.039414808 365:0.050002381 387:0.061348882 391:0.029728631 434:0.031451289 451:0.074731 452:0.05857728 458:0.033775289 487:0.04781308 511:0.042141829 534:0.046997529 587:0.032878861 595:0.056230549 599:0.04371446 626:0.041206699 633:0.04826311 640:0.03014202 717:0.042990152 733:0.043227918 748:0.04669635 817:0.066654138 833:0.05325719 846:0.078704633 853:0.0464008 869:0.047617659 887:0.062105492 890:0.073954947 914:0.050755449 971:0.045825779 975:0.05037443 986:0.043227918 1069:0.036190681 1073:0.055176072 1147:0.05857728 1157:0.070182353 1180:0.041418929 1197:0.046997529 1222:0.05237855 1234:0.038323939 1239:0.030674441 1245:0.045825779 1267:0.040385138 1274:0.047937099 1323:0.10934816 1407:0.04473491 1456:0.047937099 1532:0.056230549 1559:0.063771389 1616:0.068916768 1663:0.06291651 1672:0.064675137 1761:0.3332707 1859:0.047937099 1913:0.067745022 2033:0.063771389 2038:0.081141971 2203:0.068916768 2271:0.53300458 2296:0.068916768 2304:0.087552942 2389:0.1226681 2412:0.074731 2451:0.051546179 2485:0.06291651 2580:0.04826311 2808:0.071558118 2950:0.081141971 3150:0.070182353 3261:0.14036471 3660:0.087552942 3947:0.22419301 4051:0.081141971 4053:0.074731 4110:0.087552942 4111:0.084024727 4112:0.07306511 #
-1.0000000026399696 3:0.10661705 7:0.042057339 10:0.0021417299 17:0.14800858 22:0.12118764 41:0.19497155 47:0.079347 52:0.030927559 62:0.03129613 67:0.15012129 70:0.03056551 72:0.081969112 80:0.02703144 82:0.027259139 83:0.020170489 90:0.055312712 92:0.020717449 99:0.035287522 105:0.02819618 118:0.030927559 121:0.15124035 126:0.03324569 145:0.064687379 147:0.12082083 149:0.071380511 160:0.050748318 178:0.13779616 180:0.036812089 183:0.063757449 203:0.098259129 239:0.061162569 242:0.076919012 246:0.050040431 268:0.05200224 295:0.044743821 302:0.059032619 303:0.055615749 317:0.057202209 320:0.046425998 322:0.2032842 323:0.12647852 324:0.067761399 326:0.044924039 341:0.03345127 434:0.040688101 487:0.030927559 533:0.049353119 534:0.060800038 550:0.063307866 596:0.044038411 619:0.062867962 624:0.05655279 626:0.10661705 671:0.086229533 721:0.055014089 722:0.058922119 775:0.061602298 787:0.046425998 799:0.056235649 853:0.060028069 859:0.032150518 869:0.061602298 928:0.071380511 946:0.07748618 953:0.076615617 958:0.070731089 971:0.059284169 1069:0.093638748 1157:0.090793923 1267:0.052245691 1273:0.073462471 1274:0.062015548 1323:0.070731089 1358:0.11310557 1426:0.076615617 1509:0.072051227 1645:0.05856638 1647:0.067215897 1672:0.08366932 1761:0.17245907 1780:0.09257374 1859:0.062015548 2061:0.086229533 2218:0.054429632 2271:0.53630936 2296:0.08915665 2505:0.075780608 2580:0.062437318 2941:0.096678451 2950:0.10497223 3150:0.090793923 3261:0.090793923 3645:0.08915665 3947:0.19335692 4053:0.29003537 #
1.0000000026399696 5:0.050606031 8:0.019336861 9:0.17014545 10:0.0037895199 14:0.21442619 21:0.031622801 25:0.061379641 27:0.055237461 28:0.020570559 29:0.0370689 39:0.16176502 41:0.034497742 52:0.027361199 83:0.03568913 87:0.060490489 92:0.018328451 105:0.02494478 111:0.074834347 120:0.02728059 125:0.041420478 134:0.086928546 136:0.13600171 148:0.043464269 159:0.058089949 181:0.02968552 188:0.036391061 189:0.048934419 190:0.052773979 191:0.01965067 194:0.077534631 208:0.06564939 223:0.048153169 229:0.01637774 239:0.01803657 242:0.034024611 268:0.069008529 308:0.3006148 368:0.05561845 378:0.10091908 389:0.042694099 398:0.035737701 414:0.16292405 428:0.068550989 434:0.035996221 437:0.18129244 459:0.040066861 461:0.048153169 492:0.052127618 537:0.062018 609:0.10899748 612:0.078875713 624:0.050031502 648:0.053444289 663:0.058536801 667:0.057228059 673:0.056007631 674:0.062574863 680:0.025962509 708:0.040562671 711:0.29684788 717:0.04920252 728:0.25450143 756:0.086928546 762:0.050606031 852:0.040900931 890:0.04232097 896:0.043662049 959:0.04790007 993:0.090077989 997:0.090077989 1000:0.092867538 1025:0.04599344 1029:0.062574863 1043:0.077534631 1130:0.05561845 1186:0.11617991 1233:0.11201526 1344:0.04765046 1377:0.046451598 1437:0.056812041 1449:0.072986782 1613:0.060953211 1738:0.077534631 1834:0.063742757 1874:0.068550989 2163:0.08032418 2261:0.072008371 2320:0.07019724 2338:0.072986782 2359:0.068550989 2608:0.054140382 2626:0.44806105 2755:0.077534631 2838:0.090077989 3100:0.22549658 3101:0.10020493 3102:0.08032418 3103:0.087661572 #
1.0000000026399696 8:0.027708311 10:0.00271505 12:0.072936401 14:0.10241903 21:0.27187899 23:0.067926839 25:0.087952547 28:0.029476119 92:0.02626333 93:0.035642959 105:0.03574406 126:0.042145278 127:0.068637311 136:0.077952221 139:0.053921148 186:0.068999983 198:0.065922797 219:0.068637311 230:0.088867277 233:0.099381231 234:0.072936401 283:0.07336501 291:0.059860978 302:0.037417579 365:0.082003653 384:0.086611018 458:0.0553913 469:0.049953122 475:0.174999 487:0.039206602 515:0.098228566 525:0.085900553 527:0.085900553 599:0.14338298 687:0.08140751 727:0.10931245 756:0.062281139 760:0.13780013 782:0.24047601 808:0.11735495 826:0.11735495 884:0.07562127 919:0.10606689 922:0.082613811 953:0.097124979 977:0.068279639 1030:0.073800832 1038:0.34936604 1247:0.10458474 1249:0.22220296 1258:0.088867277 1284:0.11509869 1359:0.094070792 1532:0.092217818 1642:0.11509869 1779:0.10058752 1827:0.10606689 1888:0.10458474 1997:0.098228566 2145:0.12255846 2220:0.12255846 2511:0.10763893 2616:0.30954823 2628:0.098228566 3029:0.14358637 3446:0.12255846 3556:0.13780013 3769:0.12907518 3770:0.12561265 3771:0.23019738 #
1.0000000026399696 4:0.04444493 6:0.13499318 7:0.045774441 8:0.071367241 9:0.13954709 10:0.0023310201 17:0.064435937 20:0.0337606 21:0.038903799 26:0.054461341 27:0.067955628 28:0.025306839 35:0.066605963 38:0.24525149 39:0.079604268 40:0.037325941 41:0.16976276 61:0.093850642 74:0.05743413 82:0.02966835 83:0.10976597 87:0.037209071 92:0.022548489 126:0.036184002 188:0.044769939 191:0.02417515 219:0.05892884 246:0.027231541 267:0.051393889 268:0.02829914 332:0.068424337 370:0.092413828 382:0.069392443 391:0.041858621 398:0.087932281 422:0.040332232 424:0.06749659 444:0.05252422 516:0.074360237 549:0.066173658 617:0.11429372 667:0.21121368 674:0.30792972 685:0.04812007 695:0.068903133 698:0.076982431 728:0.062619843 775:0.067046821 810:0.087446027 828:0.11081803 831:0.34288117 838:0.06155102 839:0.085324161 842:0.087446027 853:0.065333448 854:0.071464904 856:0.058020022 886:0.050318182 891:0.061205849 905:0.069892749 915:0.082478233 920:0.085324161 978:0.061901622 1083:0.05862176 1095:0.073156558 1128:0.092413828 1186:0.071464904 1314:0.10075557 1321:0.085324161 1603:0.10784524 1621:0.08338704 1876:0.11081803 2489:0.089791648 2500:0.11081803 2622:0.078419238 2672:0.11424985 2701:0.18212833 2824:0.088587962 2842:0.23661768 2861:0.11830885 2862:0.077689238 3220:0.12327665 3690:0.2465533 3758:0.12968126 4072:0.13870806 4073:0.12327665 4075:0.10784524 4078:0.11830885 #
1.0000000026399696 10:0.0036198299 38:0.063474961 40:0.17388976 41:0.32952961 67:0.12686317 83:0.10227299 111:0.047655549 158:0.076235317 162:0.15068743 168:0.091510281 191:0.03754146 229:0.031288709 239:0.03445781 242:0.065002032 268:0.043945588 275:0.052738111 287:0.046854619 289:0.10802559 302:0.049886759 378:0.0482 381:0.088743061 386:0.090098992 511:0.046071831 533:0.16682757 549:0.10276072 681:0.10481509 728:0.09724202 756:0.083035953 787:0.078466542 810:0.13579448 896:0.083413787 920:0.13249943 1009:0.098394521 1025:0.087867782 1030:0.098394521 1086:0.36884657 1145:0.20552143 1327:0.17741799 1328:0.13249943 1329:0.13756777 1330:0.18372118 1331:0.15975782 1332:0.19143566 1333:0.098985501 1334:0.15646277 1336:0.20138136 1337:0.4279972 #
0.89766582134092543 3:0.11602323 7:0.04576781 8:0.02378563 10:0.0023306799 21:0.038898159 23:0.17493121 25:0.025167029 28:0.05060634 29:0.04559724 40:0.074641056 52:0.033656109 54:0.09153562 62:0.068114392 68:0.058613259 75:0.047923651 83:0.24145013 86:0.28854191 92:0.13527134 111:0.03068376 126:0.03617876 128:0.04888742 153:0.12171427 191:0.04834329 197:0.093837038 214:0.07434947 234:0.1878323 239:0.04437238 275:0.033956241 307:0.05923162 344:0.11899743 354:0.089778639 378:0.031034309 387:0.12955227 394:0.098804131 398:0.04395977 399:0.10074096 422:0.080652758 434:0.08855553 437:0.08920075 444:0.052516609 462:0.057716779 503:0.068893142 504:0.14513551 516:0.07434947 522:0.075621791 533:0.053707249 579:0.095372789 595:0.079162508 633:0.067945778 663:0.072004192 670:0.07434947 673:0.068893142 681:0.067486808 685:0.19245237 687:0.069882616 691:0.038772751 708:0.04989481 733:0.060857128 748:0.065740056 757:0.074976541 772:0.081593238 793:0.061542101 806:0.074976541 819:0.048113089 831:0.057138581 852:0.050310891 856:0.058011621 859:0.034986962 870:0.082466267 873:0.06841442 875:0.17062359 884:0.064915538 888:0.093837038 899:0.1142333 907:0.07697127 939:0.06841442 944:0.07994362 950:0.22846659 951:0.063352823 1113:0.060192619 1120:0.13064796 1131:0.09105096 1137:0.074976541 1141:0.16674991 1195:0.050949961 1222:0.073739581 1301:0.072004192 1465:0.11097793 1644:0.082466267 1729:0.092400439 1827:0.09105096 1864:0.20572506 1876:0.11080197 1970:0.081593238 2102:0.070918143 2261:0.088575117 2359:0.084322311 2580:0.067945778 2674:0.10074096 2853:0.066164069 2925:0.10782961 3158:0.082466267 3446:0.10520781 3479:0.10520781 3712:0.1142333 3721:0.13868795 #
-1.0000000026399696 8:0.03581138 9:0.2100701 10:0.00350905 28:0.038096171 38:0.24612959 41:0.19166692 74:0.086459652 83:0.033047691 87:0.056013439 92:0.033943839 101:0.04099356 189:0.090625338 267:0.077366851 268:0.042600699 357:0.093721107 378:0.046724912 398:0.066185333 424:0.10160738 492:0.096539058 494:0.13516971 667:0.10598496 674:0.11588708 723:0.25105679 728:0.094266072 748:0.098977499 831:0.34410882 843:0.12158104 852:0.15149502 856:0.087341636 862:0.12036223 896:0.080861032 920:0.12844448 934:0.1255284 1145:0.39846352 1250:0.10521449 1417:0.12036223 1437:0.10521449 1645:0.095956199 1890:0.13163869 2090:0.11588708 2207:0.1370853 2698:0.1583997 3136:0.1583997 3421:0.17198837 3492:0.1583997 3694:0.16234706 3695:0.19521835 3697:0.1583997 #
0.19326100242271982 10:0.0023525599 22:0.088744983 34:0.068583712 41:0.042832948 67:0.10993291 70:0.03357441 87:0.037552971 92:0.022756889 104:0.051428322 121:0.041532151 124:0.06283325 126:0.036518428 136:0.033772379 198:0.0285607 246:0.02748323 252:0.058857869 287:0.06090261 297:0.088254243 302:0.064843848 319:0.085113987 323:0.11114336 326:0.098692812 336:0.08611276 342:0.06247374 374:0.084157743 471:0.088744983 477:0.13087983 511:0.059885118 551:0.088254243 585:0.061090618 599:0.062119901 609:0.067666493 662:0.072125413 697:0.085113987 739:0.080694191 748:0.066357277 753:0.053009681 792:0.079905741 793:0.062119901 867:0.056009941 886:0.050783239 959:0.059473481 1180:0.058857869 1188:0.082359292 1245:0.065120161 1333:0.06433171 1408:0.10619558 1541:0.085113987 1740:0.10382828 2639:0.10168679 2792:0.096268222 3391:0.39263949 3398:0.27998012 3524:0.097933322 3590:0.52351934 3877:0.31112817 3879:0.13999006 3880:0.31112817 #
1.0000000026399696 1:0.03312983 7:0.1625485 10:0.0016555201 17:0.02288169 22:0.06245083 23:0.041418929 25:0.035753179 33:0.071558118 36:0.043469321 40:0.02650944 41:0.03014202 47:0.061334051 67:0.11604151 70:0.04725337 76:0.079528332 80:0.0208949 82:0.042141829 83:0.03118298 86:0.02561957 92:0.01601428 105:0.043590449 121:0.058453269 147:0.14008905 158:0.034866162 160:0.078455389 177:0.13330828 180:0.02845519 198:0.10049239 201:0.065509692 223:0.042073291 229:0.01430987 242:0.05945725 246:0.058020759 252:0.041418929 268:0.040196959 281:0.04826311 294:0.04371446 295:0.10375892 302:0.045631342 317:0.04421645 320:0.035886601 322:0.26189277 323:0.15642563 324:0.05237855 341:0.025857341 342:0.04396347 344:0.028175339 363:0.039414808 365:0.050002381 387:0.061348882 391:0.029728631 434:0.031451289 451:0.074731 452:0.05857728 458:0.033775289 487:0.04781308 511:0.042141829 534:0.046997529 587:0.032878861 595:0.056230549 599:0.04371446 626:0.041206699 633:0.04826311 640:0.03014202 717:0.042990152 733:0.043227918 748:0.04669635 817:0.066654138 833:0.05325719 846:0.078704633 853:0.0464008 869:0.047617659 887:0.062105492 890:0.073954947 914:0.050755449 971:0.045825779 975:0.05037443 986:0.043227918 1069:0.036190681 1073:0.055176072 1147:0.05857728 1157:0.070182353 1180:0.041418929 1197:0.046997529 1222:0.05237855 1234:0.038323939 1239:0.030674441 1245:0.045825779 1267:0.040385138 1274:0.047937099 1323:0.10934816 1407:0.04473491 1456:0.047937099 1532:0.056230549 1559:0.063771389 1616:0.068916768 1663:0.06291651 1672:0.064675137 1761:0.3332707 1859:0.047937099 1913:0.067745022 2033:0.063771389 2038:0.081141971 2203:0.068916768 2271:0.53300458 2296:0.068916768 2304:0.087552942 2389:0.1226681 2412:0.074731 2451:0.051546179 2485:0.06291651 2580:0.04826311 2808:0.071558118 2950:0.081141971 3150:0.070182353 3261:0.14036471 3660:0.087552942 3947:0.22419301 4051:0.081141971 4053:0.074731 4110:0.087552942 4111:0.084024727 4112:0.07306511 #
1.0000000026399696 3:0.10661705 7:0.042057339 10:0.0021417299 17:0.14800858 22:0.12118764 41:0.19497155 47:0.079347 52:0.030927559 62:0.03129613 67:0.15012129 70:0.03056551 72:0.081969112 80:0.02703144 82:0.027259139 83:0.020170489 90:0.055312712 92:0.020717449 99:0.035287522 105:0.02819618 118:0.030927559 121:0.15124035 126:0.03324569 145:0.064687379 147:0.12082083 149:0.071380511 160:0.050748318 178:0.13779616 180:0.036812089 183:0.063757449 203:0.098259129 239:0.061162569 242:0.076919012 246:0.050040431 268:0.05200224 295:0.044743821 302:0.059032619 303:0.055615749 317:0.057202209 320:0.046425998 322:0.2032842 323:0.12647852 324:0.067761399 326:0.044924039 341:0.03345127 434:0.040688101 487:0.030927559 533:0.049353119 534:0.060800038 550:0.063307866 596:0.044038411 619:0.062867962 624:0.05655279 626:0.10661705 671:0.086229533 721:0.055014089 722:0.058922119 775:0.061602298 787:0.046425998 799:0.056235649 853:0.060028069 859:0.032150518 869:0.061602298 928:0.071380511 946:0.07748618 953:0.076615617 958:0.070731089 971:0.059284169 1069:0.093638748 1157:0.090793923 1267:0.052245691 1273:0.073462471 1274:0.062015548 1323:0.070731089 1358:0.11310557 1426:0.076615617 1509:0.072051227 1645:0.05856638 1647:0.067215897 1672:0.08366932 1761:0.17245907 1780:0.09257374 1859:0.062015548 2061:0.086229533 2218:0.054429632 2271:0.53630936 2296:0.08915665 2505:0.075780608 2580:0.062437318 2941:0.096678451 2950:0.10497223 3150:0.090793923 3261:0.090793923 3645:0.08915665 3947:0.19335692 4053:0.29003537 #
1.0000000026399696 10:0.0042351298 17:0.11707098 22:0.1597605 41:0.15421747 52:0.061157249 62:0.061886068 67:0.2473793 72:0.081044309 82:0.0539032 83:0.039885849 121:0.14953403 126:0.065741219 147:0.1194577 178:0.27248302 180:0.072793528 203:0.097150549 242:0.076051198 246:0.04947586 268:0.05141554 302:0.11673321 303:0.10997657 317:0.11311368 320:0.091804422 322:0.1339938 323:0.20008251 324:0.1339938 487:0.061157249 799:0.11120237 853:0.11870164 869:0.12181459 946:0.15322392 1267:0.10331249 1426:0.15150245 1645:0.11581124 1672:0.16545069 1761:0.34102669 1859:0.12263175 2218:0.10763108 2271:0.45450735 3150:0.17953914 3261:0.17953914 4053:0.19117542 #
1.0000000026399696 1:0.0235918 7:0.0463004 10:0.0011789 17:0.048882239 20:0.034148522 22:0.066706978 23:0.058988959 24:0.032433309 25:0.01272995 29:0.02306392 34:0.034368228 40:0.018877409 41:0.17171338 43:0.0229783 52:0.03404776 53:0.03729884 55:0.02875831 57:0.02443314 58:0.04605525 62:0.034453511 64:0.048241321 67:0.12394998 70:0.050473791 72:0.022559689 75:0.02424066 76:0.018877409 80:0.01487929 82:0.060018498 83:0.02220544 84:0.032045022 86:0.01824373 92:0.034211371 96:0.0216143 101:0.01377222 105:0.062081639 107:0.062258251 117:0.032433309 118:0.01702388 120:0.01697373 121:0.083249301 131:0.032433309 134:0.054086119 145:0.035606761 147:0.066505067 149:0.03929095 168:0.059605941 177:0.09492901 179:0.02462895 180:0.040525962 181:0.018470051 183:0.035094891 198:0.07156077 214:0.037607331 223:0.02996045 229:0.01019007 239:0.01122218 242:0.021169789 246:0.068861097 252:0.029494479 268:0.057248611 282:0.02861668 287:0.01525956 291:0.025992209 294:0.031129129 295:0.049257912 302:0.032494139 303:0.03061334 307:0.059920888 317:0.062973186 320:0.051109798 322:0.22379301 323:0.16708635 324:0.03729884 326:0.02472816 338:0.047464501 341:0.018413041 343:0.01620025 344:0.040127389 365:0.035606761 368:0.03460528 419:0.059295341 429:0.02875831 446:0.028067339 458:0.02405143 471:0.02223566 481:0.050956629 487:0.06809552 491:0.025992209 497:0.03061334 503:0.03484742 511:0.07502313 541:0.02754356 547:0.036421038 585:0.03061334 587:0.14047846 599:0.031129129 612:0.049075719 626:0.058686689 640:0.021464171 641:0.037607331 650:0.03484742 685:0.024336491 688:0.037924521 691:0.01961197 708:0.025237709 717:0.03061334 721:0.03028216 762:0.062973186 779:0.02833866 787:0.025554899 796:0.07418447 799:0.03095456 819:0.024336491 838:0.031129129 847:0.03825089 853:0.03304207 859:0.017697049 869:0.033908602 890:0.052663419 909:0.045411691 914:0.07228604 928:0.078581907 939:0.03460528 951:0.032045022 975:0.035871699 977:0.029647671 1069:0.05154286 1147:0.041712958 1157:0.049976949 1158:0.072842091 1163:0.03614302 1164:0.045617972 1166:0.04367606 1180:0.08848343 1183:0.033908602 1197:0.066934012 1239:0.02184331 1245:0.032632601 1338:0.057781309 1396:0.032835469 1418:0.056045681 1426:0.042172588 1435:0.041712958 1461:0.049976949 1466:0.038933489 1472:0.039660148 1560:0.03699857 1593:0.03078266 1616:0.14722715 1621:0.042172588 1622:0.10908441 1654:0.08530356 1663:0.04480293 1665:0.040041849 1728:0.052029759 1800:0.047464501 1829:0.065585658 1859:0.068272144 1869:0.047464501 2033:0.045411691 2040:0.053216051 2150:0.044225398 2162:0.052029759 2174:0.04367606 2177:0.07399714 2186:0.04367606 2201:0.036706101 2271:0.6325888 2279:0.04265178 2296:0.049075719 2546:0.056045681 2726:0.04265178 2824:0.04480293 2888:0.049976949 3000:0.054542199 3115:0.049976949 3150:0.09995389 3235:0.049976949 3261:0.19990779 3264:0.053216051 3645:0.098151438 4050:0.065585658 4051:0.057781309 4052:0.059834119 4053:0.1064321 4054:0.065585658 4055:0.062346559 4056:0.065585658 #
1.0000000026399696 1:0.071737371 4:0.034174979 7:0.10559186 10:0.00179239 12:0.048150189 17:0.02477332 19:0.043085761 22:0.033806831 29:0.035066109 39:0.06121001 40:0.086102962 41:0.13053547 47:0.066404551 48:0.049311221 50:0.054538898 53:0.056708701 55:0.13117138 58:0.070021853 62:0.20953082 63:0.034551229 64:0.073345512 67:0.06281735 70:0.025579911 72:0.10289844 75:0.03685521 80:0.045244578 83:0.033760879 90:0.046290539 105:0.047194079 118:0.0258829 121:0.15821403 134:0.082231887 139:0.035596959 149:0.059737489 160:0.04247066 176:0.05190007 198:0.10880012 201:0.070925392 202:0.02906522 213:0.05717773 239:0.03412414 242:0.0321863 246:0.020939119 254:0.073345512 259:0.061479859 268:0.043520048 275:0.026113721 276:0.073345512 280:0.035462689 285:0.068117827 287:0.02320046 289:0.053489771 291:0.039518241 295:0.03744556 302:0.02470185 307:0.045551501 315:0.039017171 317:0.047871839 323:0.06350901 326:0.11278916 335:0.071059652 337:0.11435546 342:0.047597941 365:0.05413609 372:0.04814329 387:0.0664206 434:0.034051381 459:0.03790208 471:0.16903412 483:0.064847253 497:0.13963246 509:0.044613261 511:0.15968995 534:0.050882831 548:0.05335784 553:0.045075949 587:0.071193919 596:0.03685521 618:0.070021853 626:0.044613261 665:0.068117827 689:0.059193999 697:0.064847253 710:0.0529816 716:0.043723792 744:0.082925297 762:0.047871839 853:0.10047353 859:0.02690638 867:0.042673241 877:0.046040632 928:0.059737489 1008:0.063419878 1021:0.067239769 1043:0.073345512 1069:0.03918257 1073:0.059737489 1093:0.059193999 1105:0.062748477 1147:0.063419878 1156:0.099845313 1157:0.075984336 1158:0.055374108 1181:0.062102418 1197:0.050882831 1267:0.043723792 1358:0.047328349 1403:0.046040632 1404:0.15196869 1407:0.096866302 1426:0.064118691 1449:0.069043383 1457:0.065608203 1488:0.070021853 1493:0.071059652 1511:0.069043383 1560:0.056252182 1569:0.063419878 1607:0.062748477 1621:0.064118691 1643:0.062748477 1647:0.056252182 1663:0.068117827 1761:0.14432891 1800:0.072164461 1849:0.069043383 1895:0.072164461 1903:0.065608203 1990:0.046544161 2000:0.07461413 2166:0.082925297 2207:0.070021853 2229:0.075984336 2265:0.063419878 2271:0.44883084 2296:0.07461413 2314:0.056708701 2546:0.085211158 2652:0.082925297 2941:0.080909029 2950:0.087849997 3000:0.16585061 3111:0.085211158 3216:0.065608203 3259:0.079105422 3261:0.075984336 3263:0.085211158 3264:0.080909029 3265:0.087849997 3267:0.10665661 #
-1.0000000026399696 1:0.0235918 7:0.0463004 10:0.0011789 17:0.048882239 20:0.034148522 22:0.066706978 23:0.058988959 24:0.032433309 25:0.01272995 29:0.02306392 34:0.034368228 40:0.018877409 41:0.17171338 43:0.0229783 52:0.03404776 53:0.03729884 55:0.02875831 57:0.02443314 58:0.04605525 62:0.034453511 64:0.048241321 67:0.12394998 70:0.050473791 72:0.022559689 75:0.02424066 76:0.018877409 80:0.01487929 82:0.060018498 83:0.02220544 84:0.032045022 86:0.01824373 92:0.034211371 96:0.0216143 101:0.01377222 105:0.062081639 107:0.062258251 117:0.032433309 118:0.01702388 120:0.01697373 121:0.083249301 131:0.032433309 134:0.054086119 145:0.035606761 147:0.066505067 149:0.03929095 168:0.059605941 177:0.09492901 179:0.02462895 180:0.040525962 181:0.018470051 183:0.035094891 198:0.07156077 214:0.037607331 223:0.02996045 229:0.01019007 239:0.01122218 242:0.021169789 246:0.068861097 252:0.029494479 268:0.057248611 282:0.02861668 287:0.01525956 291:0.025992209 294:0.031129129 295:0.049257912 302:0.032494139 303:0.03061334 307:0.059920888 317:0.062973186 320:0.051109798 322:0.22379301 323:0.16708635 324:0.03729884 326:0.02472816 338:0.047464501 341:0.018413041 343:0.01620025 344:0.040127389 365:0.035606761 368:0.03460528 419:0.059295341 429:0.02875831 446:0.028067339 458:0.02405143 471:0.02223566 481:0.050956629 487:0.06809552 491:0.025992209 497:0.03061334 503:0.03484742 511:0.07502313 541:0.02754356 547:0.036421038 585:0.03061334 587:0.14047846 599:0.031129129 612:0.049075719 626:0.058686689 640:0.021464171 641:0.037607331 650:0.03484742 685:0.024336491 688:0.037924521 691:0.01961197 708:0.025237709 717:0.03061334 721:0.03028216 762:0.062973186 779:0.02833866 787:0.025554899 796:0.07418447 799:0.03095456 819:0.024336491 838:0.031129129 847:0.03825089 853:0.03304207 859:0.017697049 869:0.033908602 890:0.052663419 909:0.045411691 914:0.07228604 928:0.078581907 939:0.03460528 951:0.032045022 975:0.035871699 977:0.029647671 1069:0.05154286 1147:0.041712958 1157:0.049976949 1158:0.072842091 1163:0.03614302 1164:0.045617972 1166:0.04367606 1180:0.08848343 1183:0.033908602 1197:0.066934012 1239:0.02184331 1245:0.032632601 1338:0.057781309 1396:0.032835469 1418:0.056045681 1426:0.042172588 1435:0.041712958 1461:0.049976949 1466:0.038933489 1472:0.039660148 1560:0.03699857 1593:0.03078266 1616:0.14722715 1621:0.042172588 1622:0.10908441 1654:0.08530356 1663:0.04480293 1665:0.040041849 1728:0.052029759 1800:0.047464501 1829:0.065585658 1859:0.068272144 1869:0.047464501 2033:0.045411691 2040:0.053216051 2150:0.044225398 2162:0.052029759 2174:0.04367606 2177:0.07399714 2186:0.04367606 2201:0.036706101 2271:0.6325888 2279:0.04265178 2296:0.049075719 2546:0.056045681 2726:0.04265178 2824:0.04480293 2888:0.049976949 3000:0.054542199 3115:0.049976949 3150:0.09995389 3235:0.049976949 3261:0.19990779 3264:0.053216051 3645:0.098151438 4050:0.065585658 4051:0.057781309 4052:0.059834119 4053:0.1064321 4054:0.065585658 4055:0.062346559 4056:0.065585658 #
-1.0000000026399696 10:0.0042351298 17:0.11707098 22:0.1597605 41:0.15421747 52:0.061157249 62:0.061886068 67:0.2473793 72:0.081044309 82:0.0539032 83:0.039885849 121:0.14953403 126:0.065741219 147:0.1194577 178:0.27248302 180:0.072793528 203:0.097150549 242:0.076051198 246:0.04947586 268:0.05141554 302:0.11673321 303:0.10997657 317:0.11311368 320:0.091804422 322:0.1339938 323:0.20008251 324:0.1339938 487:0.061157249 799:0.11120237 853:0.11870164 869:0.12181459 946:0.15322392 1267:0.10331249 1426:0.15150245 1645:0.11581124 1672:0.16545069 1761:0.34102669 1859:0.12263175 2218:0.10763108 2271:0.45450735 3150:0.17953914 3261:0.17953914 4053:0.19117542 #
-1.0000000026399696 7:0.04818875 10:0.00122698 17:0.01695863 22:0.069427602 23:0.092092209 25:0.02649826 26:0.02866691 28:0.01332081 29:0.02400458 38:0.02151558 40:0.05894196 41:0.11169791 45:0.02241745 46:0.038820062 48:0.0337561 52:0.01771819 55:0.059862431 57:0.050859269 62:0.053788029 67:0.086003497 70:0.087553911 74:0.030231699 76:0.039294641 80:0.15486136 82:0.10931609 84:0.033351969 86:0.01898779 87:0.019585811 93:0.016107719 99:0.02021599 101:0.01433392 102:0.02764727 104:0.026822509 105:0.048460212 107:0.032398719 117:0.0337561 120:0.035331991 121:0.10830575 122:0.053645018 128:0.02573669 131:0.0337561 145:0.037058972 148:0.02814601 149:0.040893432 153:0.032038119 159:0.03761711 168:0.031018481 170:0.032398719 179:0.025633439 180:0.021089399 181:0.019223349 183:0.036526222 188:0.07069689 198:0.08937522 202:0.01989666 207:0.02693684 233:0.04491223 239:0.04671951 240:0.03761711 242:0.0220332 246:0.12900524 265:0.038820062 268:0.074479349 282:0.089351423 283:0.03315502 287:0.03176384 289:0.018308271 291:0.027052291 295:0.15380064 298:0.03085684 302:0.0169097 307:0.03118238 317:0.032770772 320:0.053194299 323:0.072458722 326:0.02573669 332:0.036016639 334:0.03118238 343:0.03372195 348:0.04940033 350:0.066310033 363:0.029212059 389:0.02764727 391:0.0220332 401:0.033552289 406:0.056292009 459:0.02594595 466:0.03914113 471:0.1388552 480:0.034389678 482:0.095585696 497:0.031861901 503:0.036268659 507:0.021808559 511:0.078082919 534:0.034831949 541:0.02866691 547:0.037906472 576:0.040160779 584:0.064797439 589:0.038820062 596:0.025229311 624:0.064797439 626:0.030540099 637:0.058331478 640:0.022339581 641:0.03914113 671:0.04940033 672:0.03678957 673:0.036268659 676:0.038820062 697:0.044391319 702:0.03914113 708:0.026267029 717:0.063723803 722:0.0337561 733:0.032038119 740:0.042086169 790:0.040160779 796:0.02573669 801:0.050658088 805:0.054151781 810:0.046029121 846:0.058331478 853:0.034389678 859:0.073675282 886:0.026486071 905:0.03678957 912:0.069217458 913:0.081786849 914:0.18808553 931:0.060137901 939:0.036016639 951:0.033351969 977:0.061713681 1044:0.058331478 1069:0.026822509 1087:0.02801932 1089:0.05303489 1093:0.04052138 1150:0.046029121 1156:0.034174658 1157:0.10403049 1158:0.037906472 1164:0.071217731 1178:0.040160779 1180:0.0613948 1181:0.042512339 1183:0.070583113 1197:0.034831949 1210:0.046029121 1224:0.064434066 1230:0.027769979 1243:0.041277669 1250:0.07357914 1255:0.0350595 1267:0.02993121 1274:0.035528298 1372:0.11666297 1407:0.09946505 1438:0.073012009 1442:0.041674949 1449:0.04726379 1456:0.035528298 1462:0.041674949 1479:0.05303489 1487:0.044391319 1489:0.036268659 1500:0.060137901 1507:0.060137901 1536:0.05303489 1559:0.04726379 1560:0.11552264 1593:0.032038119 1604:0.060137901 1621:0.043892581 1654:0.088782638 1671:0.054151781 1680:0.15604573 1786:0.043414209 1859:0.035528298 1869:0.098800659 1941:0.060137901 1983:0.058331478 2071:0.052015241 2090:0.04052138 2152:0.050208829 2186:0.045457382 2189:0.058331478 2271:0.43892586 2279:0.044391319 2296:0.051077262 2389:0.045457382 2399:0.060137901 2436:0.060137901 2506:0.060137901 2515:0.054151781 2522:0.062274441 2744:0.058331478 2808:0.05303489 2902:0.036016639 2947:0.058331478 3000:0.11353339 3024:0.054151781 3102:0.052015241 3150:0.052015241 3261:0.31209147 3265:0.060137901 3366:0.058331478 3557:0.058331478 3759:0.058331478 3827:0.056766689 4111:0.062274441 4112:0.054151781 4114:0.060137901 4210:0.062274441 4664:0.073012009 5021:0.058331478 5301:0.073012009 #
-1.0000000026399696 10:0.0027605901 17:0.11446567 41:0.15078549 55:0.067342237 62:0.040339239 67:0.032249879 72:0.052827168 76:0.044204511 80:0.03484226 82:0.070271522 83:0.02599882 107:0.072893888 121:0.048735429 139:0.054825511 179:0.057672679 197:0.11114582 198:0.03351422 203:0.063325703 228:0.055669282 229:0.02386171 242:0.099145003 246:0.032249879 263:0.13742436 268:0.1340569 275:0.040219668 282:0.067010596 287:0.035732739 307:0.07015723 323:0.032604981 336:0.10104803 343:0.075871021 378:0.036758762 413:0.096643567 429:0.13468449 444:0.062203601 471:0.05206839 487:0.039864171 491:0.060864959 511:0.070271522 535:0.069424808 626:0.06871219 691:0.045924611 752:0.060093231 777:0.10356093 796:0.11580996 805:0.1218361 907:0.091169059 1069:0.060347971 1180:0.069066092 1197:0.078368403 1204:0.11702911 1333:0.15097862 1396:0.076889582 1407:0.074595481 1446:0.091169059 1478:0.14011127 1559:0.21267763 1576:0.15357944 1628:0.16554573 1654:0.099876039 1672:0.10784583 1694:0.098753937 1918:0.13124003 1945:0.091169059 2082:0.11491874 2150:0.10356093 2271:0.49376968 2535:0.14011127 2824:0.10491331 2933:0.12771939 3524:0.11491874 4054:0.30715889 4056:0.15357944 4408:0.13530427 5021:0.13124003 #
-0.11889117452740844 1:0.044947971 10:0.00224609 20:0.032530501 23:0.05619397 25:0.02425356 36:0.058975771 41:0.081788659 52:0.032434519 63:0.043297019 67:0.078718022 76:0.035965942 82:0.02858736 92:0.021726919 126:0.03486561 133:0.054791398 134:0.05152344 137:0.062559359 139:0.04460746 191:0.023294309 198:0.027268041 246:0.026239339 268:0.027268041 302:0.061909031 307:0.057081752 322:0.3553156 323:0.07958477 324:0.071063124 391:0.040333468 460:0.073517412 482:0.058325671 511:0.11434946 585:0.058325671 587:0.089214914 599:0.059308361 762:0.059989419 847:0.072877012 890:0.050168149 912:0.063353948 914:0.068861023 1163:0.068861023 1180:0.05619397 1197:0.12752514 1222:0.071063124 1230:0.050835092 1239:0.041616678 1255:0.064179122 1267:0.054791398 1358:0.059308361 1596:0.06217283 1616:0.093500867 1647:0.070491038 1680:0.095217921 1728:0.099129021 1780:0.097084463 1848:0.085360192 2080:0.10391582 2132:0.076289207 2137:0.089046657 2162:0.099129021 2271:0.48209259 2306:0.25956008 2329:0.11878497 2368:0.090431117 2562:0.090431117 2938:0.11008707 2977:0.10391582 3261:0.19043584 3599:0.07556197 3645:0.093500867 3680:0.10678028 3777:0.12495622 4050:0.12495622 4053:0.20277835 4353:0.11878497 4731:0.12495622 4754:0.13365412 4804:0.11878497 5155:0.26730824 #
1.0000000026399696 8:0.03581138 9:0.2100701 10:0.00350905 28:0.038096171 38:0.24612959 41:0.19166692 74:0.086459652 83:0.033047691 87:0.056013439 92:0.033943839 101:0.04099356 189:0.090625338 267:0.077366851 268:0.042600699 357:0.093721107 378:0.046724912 398:0.066185333 424:0.10160738 492:0.096539058 494:0.13516971 667:0.10598496 674:0.11588708 723:0.25105679 728:0.094266072 748:0.098977499 831:0.34410882 843:0.12158104 852:0.15149502 856:0.087341636 862:0.12036223 896:0.080861032 920:0.12844448 934:0.1255284 1145:0.39846352 1250:0.10521449 1417:0.12036223 1437:0.10521449 1645:0.095956199 1890:0.13163869 2090:0.11588708 2207:0.1370853 2698:0.1583997 3136:0.1583997 3421:0.17198837 3492:0.1583997 3694:0.16234706 3695:0.19521835 3697:0.1583997 #
1.0000000026399696 8:0.05286622 10:0.0051802001 28:0.056239109 38:0.36334649 39:0.17690371 41:0.18863098 87:0.082689323 96:0.094975159 128:0.10865773 153:0.27052352 158:0.10909751 219:0.13095692 240:0.31763136 267:0.11421209 332:0.15205868 371:0.16389443 460:0.16955481 650:0.15312269 674:0.17107722 680:0.14196099 752:0.11276396 775:0.14899743 819:0.10693671 911:0.19433038 1006:0.20237091 1128:0.20537028 1145:0.14705701 1645:0.14165445 2608:0.1480177 2626:0.30624536 2866:0.27395639 #
0.026747270283267975 5:0.080411911 8:0.030725859 9:0.045059592 10:0.00301073 27:0.087771162 28:0.032686189 38:0.1583828 39:0.10281648 41:0.10963238 52:0.043476369 62:0.043994479 74:0.074181639 83:0.11341855 92:0.02912352 111:0.039636731 126:0.046735082 128:0.063151903 136:0.04322077 170:0.079498999 175:0.11761802 198:0.036551028 219:0.076112203 229:0.02602388 267:0.1327602 268:0.073102072 287:0.077941149 315:0.065538444 382:0.089626938 397:0.092303708 398:0.056786451 424:0.17435654 429:0.073444299 437:0.11522795 469:0.055393219 470:0.065538444 475:0.04851428 487:0.043476369 533:0.069378071 568:0.11597446 596:0.061906919 624:0.079498999 642:0.096853368 666:0.12533183 667:0.090934187 674:0.099430129 711:0.15722834 728:0.08087948 756:0.13812762 771:0.065538444 831:0.073810607 856:0.074938379 859:0.045195539 1033:0.12121703 1119:0.15922353 1145:0.17093913 1267:0.073444299 1293:0.11020426 1384:0.1054007 1869:0.12121703 1926:0.29512912 2011:0.44269365 2017:0.14313202 2090:0.099430129 2204:0.086597338 2324:0.15280713 2851:0.15280713 2978:0.14756455 3492:0.13590559 3930:0.19908579 3931:0.16749568 3932:0.17915465 #
-1.0000000026399696 8:0.05286622 10:0.0051802001 28:0.056239109 38:0.36334649 39:0.17690371 41:0.18863098 87:0.082689323 96:0.094975159 128:0.10865773 153:0.27052352 158:0.10909751 219:0.13095692 240:0.31763136 267:0.11421209 332:0.15205868 371:0.16389443 460:0.16955481 650:0.15312269 674:0.17107722 680:0.14196099 752:0.11276396 775:0.14899743 819:0.10693671 911:0.19433038 1006:0.20237091 1128:0.20537028 1145:0.14705701 1645:0.14165445 2608:0.1480177 2626:0.30624536 2866:0.27395639 #
-0.60621377135961996 10:0.0030513699 14:0.057552941 32:0.041451659 39:0.052102141 54:0.11984013 70:0.043547388 80:0.077024639 83:0.057474721 86:0.23610276 87:0.14612323 95:0.070314519 198:0.037044391 229:0.026375139 246:0.035646871 302:0.042052571 357:0.081497297 365:0.092161603 378:0.040630691 398:0.057552941 461:0.07754714 517:0.11753985 522:0.099005453 533:0.21094356 540:0.07837984 566:0.10796637 617:0.14961377 681:0.088354982 752:0.066423059 831:0.37403443 856:0.075949878 879:0.07880529 889:0.11753985 896:0.14062905 919:0.1192056 920:0.11169178 947:0.12935619 951:0.08294268 1073:0.10169745 1092:0.12486383 1145:0.51973933 1217:0.099875443 1652:0.10915603 1950:0.12097237 2048:0.12935619 2341:0.11446937 3605:0.13466953 3654:0.1697565 4606:0.18157282 4624:0.1697565 5024:0.16137268 #
-1.0000000026399696 8:0.057453372 10:0.0028148401 14:0.053091642 15:0.062328581 20:0.040767871 21:0.046978582 23:0.07042338 25:0.091185108 28:0.03055946 39:0.048063371 70:0.04017175 83:0.10603898 92:0.054457199 105:0.037057769 109:0.13871004 126:0.043694269 136:0.08081723 180:0.048381519 187:0.11159503 202:0.04564523 229:0.02433064 234:0.15123414 239:0.05358997 246:0.032883659 251:0.11932897 257:0.04902935 268:0.068345688 279:0.15583242 378:0.037481152 385:0.077440381 398:0.053091642 411:0.11333006 414:0.12101934 422:0.048703481 429:0.068665653 468:0.095607139 469:0.051789071 470:0.06127419 471:0.053091642 475:0.0453577 490:0.077916212 503:0.0832045 642:0.090551607 672:0.084399521 687:0.16879904 711:0.073499151 766:0.10303383 771:0.06127419 775:0.080962896 795:0.10183881 818:0.067015827 820:0.084399521 831:0.13801625 856:0.070062518 860:0.3131952 863:0.31285337 870:0.099597208 875:0.20606767 885:0.097528219 942:0.11333006 1013:0.10697507 1029:0.092960708 1095:0.088340752 1180:0.07042338 1384:0.19708563 1563:0.10303383 1842:0.12423043 1991:0.10559612 2107:0.13022934 2505:0.099597208 2670:0.29772732 2754:0.10842859 2794:0.10559612 3064:0.14886364 3136:0.1270629 3202:0.16749796 3204:0.16749796 3205:0.16749796 #
-1.0000000026399696 8:0.02154883 10:0.0021114999 14:0.03982579 25:0.045600642 27:0.12311233 28:0.02292366 39:0.28843132 67:0.049334232 82:0.026874449 83:0.13920084 87:0.13482019 89:0.070373148 92:0.02042507 94:0.062857673 96:0.038712889 101:0.02466711 107:0.05575468 111:0.02779826 134:0.19374488 148:0.048436221 152:0.044112369 179:0.13233711 207:0.046355382 221:0.061140351 222:0.054532111 229:0.01825121 239:0.0401996 242:0.037916739 246:0.02466711 279:0.058447521 348:0.085012607 381:0.051765271 389:0.09515591 397:0.064734958 398:0.03982579 428:0.076392651 436:0.079211131 437:0.16162463 446:0.050270788 533:0.04865662 534:0.059942 547:0.065232918 557:0.077289082 576:0.069112338 615:0.089512587 633:0.061556172 640:0.038444001 647:0.067925751 648:0.05955787 716:0.051508371 728:0.17016855 757:0.067925751 831:0.25882635 833:0.067925751 838:0.05575468 844:0.069112338 845:0.05575468 856:0.052556209 877:0.054237701 891:0.05544202 965:0.076392651 1042:0.08371111 1073:0.070373148 1105:0.073920213 1186:0.064734958 1188:0.22176065 1217:0.069112338 1229:0.081335858 1313:0.059180919 1387:0.062414441 1388:0.063774481 1532:0.071718067 1596:0.058447521 2131:0.2474656 2180:0.075534381 2320:0.15645441 2392:0.089512587 2398:0.087898433 2403:0.093189336 2411:0.081335858 2466:0.089512587 2505:0.074711151 2576:0.091267288 2586:0.091267288 3226:0.095314071 3259:0.093189336 3280:0.29306796 3516:0.095314071 4595:0.10038215 4753:0.11166753 5103:0.10716755 6126:0.11746902 6127:0.25129148 6128:0.11746902 6129:0.12564576 6130:0.12564576 #
0.82271941018238404 2:0.0897457 4:0.045687359 8:0.024454091 10:0.0023961801 17:0.033118598 20:0.034704361 28:0.052028552 32:0.032551169 40:0.076738723 41:0.26176256 53:0.075811908 58:0.093609802 62:0.03501432 74:0.05903966 76:0.076738723 83:0.022566879 92:0.046357639 93:0.03145685 101:0.027992779 105:0.031546071 121:0.04230218 136:0.10319561 143:0.068023503 182:0.072911181 188:0.04602145 203:0.054966491 210:0.0806114 223:0.060896229 229:0.02071188 230:0.31372082 239:0.06842909 250:0.07346265 268:0.058180459 276:0.09805309 323:0.02830101 418:0.13347977 491:0.052830569 507:0.042590048 541:0.055983782 667:0.21711802 669:0.094997212 673:0.070829272 691:0.039862402 934:0.34287229 1032:0.10816451 1147:0.084783852 1393:0.077747017 1647:0.075201601 1672:0.093609802 2271:0.42859036 2411:0.092301719 2535:0.36484829 3947:0.21632901 4061:0.31689668 #
-1.0000000026399696 4:0.03923697 6:0.23834997 7:0.080821402 9:0.15399411 10:0.0020578699 14:0.038814291 19:0.049467608 39:0.035138208 40:0.098856509 41:0.22480553 43:0.080221258 74:0.050704129 83:0.058142308 87:0.032848999 89:0.068585791 107:0.054338612 136:0.059083931 148:0.047206029 187:0.08158499 189:0.053147089 234:0.05528219 275:0.029981671 289:0.030706329 339:0.069230251 391:0.036953729 398:0.038814291 400:0.060829218 401:0.05627336 405:0.04922938 413:0.072042771 414:0.044237468 422:0.035606191 509:0.051221371 556:0.10086232 582:0.052860159 586:0.06261719 617:0.15135157 665:0.078207433 674:0.20388541 676:0.13021676 682:0.10444569 710:0.060829218 748:0.058045201 754:0.13471404 756:0.047206029 787:0.04460831 821:0.054648131 831:0.10090105 856:0.051221371 880:0.10883137 885:0.071301021 996:0.18578653 1016:0.095208183 1027:0.05958749 1057:0.040260091 1087:0.04699355 1122:0.061261188 1166:0.076240383 1353:0.071301021 1388:0.062154721 1493:0.08158499 1643:0.14408554 1651:0.072042771 1738:0.084209427 1821:0.088949263 1922:0.10883137 1991:0.07719931 1997:0.14890482 2007:0.12430943 2044:0.05403389 2102:0.06261719 2264:0.17447826 2271:0.14723188 2535:0.20889138 2608:0.058801219 2708:0.088949263 2862:0.068585791 3147:0.084209427 3186:0.19041637 3949:0.45794204 4161:0.10883137 4173:0.12245456 5004:0.11448551 5473:0.12245456 #
-1.0000000026399696 4:0.059456181 10:0.00103944 17:0.01436653 18:0.026277339 20:0.01505441 41:0.2649501 62:0.01518887 72:0.019890931 74:0.051221661 76:0.016644251 82:0.026459221 87:0.04977642 92:0.01005475 111:0.01368438 139:0.041286722 198:0.088333391 209:0.02913327 229:0.026953829 234:0.027923221 242:0.01866545 246:0.012143 252:0.20804276 257:0.03621028 267:0.045834769 268:0.01261906 275:0.1362946 276:0.042534471 279:0.028772229 294:0.02744662 298:0.02614041 302:0.057300299 307:0.02641619 326:0.10901434 332:0.030511551 341:0.016234821 352:0.13857166 368:0.030511551 380:0.086540341 381:0.076448187 382:0.061886478 387:0.019259291 391:0.01866545 437:0.019890931 443:0.034968428 446:0.024747031 452:0.036778409 493:0.043270171 507:0.018475151 567:0.10298321 596:0.02137305 603:0.034327742 640:0.018925009 649:0.06185222 653:0.0297007 697:0.41366783 713:0.032112509 716:0.02535627 717:0.0539837 733:0.027141141 750:0.02655701 753:0.02342142 762:0.0555236 801:0.021457531 820:0.03116633 859:0.03120706 877:0.053399701 891:0.0272927 908:0.085068941 943:0.033725899 969:0.04003958 971:0.057544459 1014:0.23460352 1034:0.12011875 1077:0.03288646 1083:0.02614041 1150:0.038993631 1191:0.03402226 1255:0.0297007 1279:0.026277339 1285:0.049415588 1320:0.086540341 1337:0.030725051 1346:0.032621719 1358:0.02744662 1492:0.03530499 1564:0.037606169 1588:0.049415588 1599:0.046920702 1663:0.03950284 1694:0.037183661 1730:0.044928569 1792:0.048089981 1891:0.24725315 2030:0.046920702 2102:0.03162815 2180:0.037183661 2194:0.046920702 2265:0.11033522 2271:0.29746929 2314:0.03288646 2421:0.042534471 2629:0.071306698 2769:0.054971099 2869:0.057827018 2990:0.04184955 3261:0.13219434 3372:0.10551174 3393:0.40478915 3426:0.048089981 3670:0.098831177 3771:0.044064779 3792:0.057827018 3833:0.045874748 3947:0.14076211 4102:0.057827018 4624:0.057827018 5060:0.06185222 5392:0.068733342 5395:0.068733342 5397:0.13746667 #
-0.05443629430968059 10:0.0039430899 38:0.13828695 76:0.063139558 82:0.10037239 100:0.12166635 137:0.1098253 198:0.04787007 229:0.03408289 246:0.092128299 289:0.058836319 299:0.11051632 389:0.088848568 455:0.11574479 541:0.092125349 634:0.70390451 680:0.05402929 733:0.20591845 877:0.10128521 912:0.11122025 935:0.20853148 1125:0.15404169 1180:0.098650619 1197:0.11193759 1234:0.091279037 2007:0.11909447 2239:0.070806928 2240:0.26408798 2710:0.12906258 2771:0.23463485 2853:0.11193759 5071:0.21936536 #
0.49206459252649387 8:0.057453372 10:0.0028148401 14:0.053091642 15:0.062328581 20:0.040767871 21:0.046978582 23:0.07042338 25:0.091185108 28:0.03055946 39:0.048063371 70:0.04017175 83:0.10603898 92:0.054457199 105:0.037057769 109:0.13871004 126:0.043694269 136:0.08081723 180:0.048381519 187:0.11159503 202:0.04564523 229:0.02433064 234:0.15123414 239:0.05358997 246:0.032883659 251:0.11932897 257:0.04902935 268:0.068345688 279:0.15583242 378:0.037481152 385:0.077440381 398:0.053091642 411:0.11333006 414:0.12101934 422:0.048703481 429:0.068665653 468:0.095607139 469:0.051789071 470:0.06127419 471:0.053091642 475:0.0453577 490:0.077916212 503:0.0832045 642:0.090551607 672:0.084399521 687:0.16879904 711:0.073499151 766:0.10303383 771:0.06127419 775:0.080962896 795:0.10183881 818:0.067015827 820:0.084399521 831:0.13801625 856:0.070062518 860:0.3131952 863:0.31285337 870:0.099597208 875:0.20606767 885:0.097528219 942:0.11333006 1013:0.10697507 1029:0.092960708 1095:0.088340752 1180:0.07042338 1384:0.19708563 1563:0.10303383 1842:0.12423043 1991:0.10559612 2107:0.13022934 2505:0.099597208 2670:0.29772732 2754:0.10842859 2794:0.10559612 3064:0.14886364 3136:0.1270629 3202:0.16749796 3204:0.16749796 3205:0.16749796 #
1.0000000026399696 8:0.036739811 10:0.00360002 20:0.052139811 25:0.038873538 28:0.039083831 62:0.052605491 72:0.068890721 82:0.091639496 83:0.33904472 86:0.16713306 120:0.051832821 121:0.063554771 149:0.11998312 153:0.18800253 221:0.1042416 224:0.099041879 229:0.031117519 246:0.084112689 287:0.046598259 302:0.049613811 303:0.09348423 345:0.082581632 365:0.10873267 387:0.066703103 389:0.081118308 397:0.11037025 398:0.13580243 418:0.10026997 503:0.10641386 507:0.06398727 534:0.20439693 535:0.090535328 691:0.05988925 796:0.15102516 831:0.088257506 856:0.089606017 870:0.12737922 873:0.10567442 875:0.13177447 896:0.082957402 1009:0.097856157 1023:0.13681509 1057:0.070430502 1113:0.18594968 1118:0.12603071 1120:0.40360343 1146:0.13337395 1217:0.1178335 1377:0.088257506 1429:0.10954171 1682:0.1625063 1849:0.13867407 2007:0.10873267 2120:0.13337395 2203:0.14986295 2397:0.14063932 2451:0.22417948 2452:0.2002795 #
1.0000000026399696 2:0.027950181 4:0.028457521 8:0.01523184 10:0.00149252 17:0.02062875 25:0.016116461 28:0.01620364 32:0.02027531 40:0.023899321 43:0.058182321 67:0.017436011 70:0.063901201 72:0.02856119 99:0.024591049 105:0.01964926 117:0.041061468 125:0.03262734 191:0.030958081 207:0.032766409 239:0.056830369 246:0.052308019 257:0.077990979 268:0.1811958 275:0.065234698 281:0.043511119 309:0.03622951 357:0.03986289 361:0.60095161 363:0.035534021 387:0.027654231 406:0.034237262 433:0.036052428 487:0.021552701 527:0.047221351 553:0.037534758 554:0.054631971 604:0.060091369 642:0.048013479 672:0.044751432 753:0.067261182 818:0.035534021 819:0.03081066 863:0.16588527 891:0.03918932 907:0.049290858 939:0.043811232 971:0.041313771 986:0.038971689 1015:0.051712699 1180:0.03734082 1197:0.042370141 1259:0.051712699 1301:0.046110041 1403:0.03833805 1456:0.043217201 1511:0.05749245 1578:0.064512499 1594:0.060091369 1738:0.12214966 1750:0.13474596 1797:0.07575164 1895:0.060091369 1919:0.064512499 1921:0.083033249 1922:0.31572983 1923:0.088812992 1924:0.061074831 1925:0.098693527 1926:0.073152721 1930:0.07575164 1932:0.070955358 1933:0.39477411 1934:0.098693527 1935:0.15786491 1936:0.067372978 1937:0.088812992 1938:0.088812992 1939:0.088812992 1941:0.073152721 1942:0.088812992 1943:0.05225068 1944:0.078932457 1945:0.049290858 1947:0.083033249 1948:0.083033249 1949:0.1660665 1950:0.05917139 #
0.9181206303869488 10:0.0043113702 22:0.081318296 32:0.058568321 52:0.06225824 67:0.10073311 76:0.069036812 82:0.1097472 133:0.21034476 134:0.098899513 137:0.12008302 181:0.13509411 222:0.1113464 240:0.1321791 242:0.077420317 246:0.10073311 267:0.09505643 323:0.20368452 384:0.13753423 436:0.16173726 487:0.06225824 511:0.054873601 551:0.16173726 685:0.089001268 796:0.09043365 801:0.26700383 838:0.11384272 1004:0.17642391 1007:0.13423835 1202:0.15093401 1239:0.079883441 1262:0.13118684 1271:0.14111707 1457:0.15781271 1465:0.10264542 1941:0.21131273 2032:0.63393819 #
0.83409593414128136 8:0.047375891 10:0.0092844302 28:0.050398499 92:0.08981052 229:0.040125951 248:0.12121439 262:0.29374692 287:0.060088329 302:0.063976876 343:0.063792527 780:0.15617169 859:0.13937309 922:0.14125375 984:0.25825989 1099:0.15923059 1163:0.14232215 1592:0.33984566 1715:0.17881984 2154:0.56988657 2155:0.24550512 2156:0.2206938 2157:0.2206938 2158:0.25825989 #
-0.51875021216980111 7:0.19590887 10:0.0049882298 15:0.11045374 20:0.21673667 62:0.072890818 86:0.077193879 92:0.048252352 93:0.06548509 96:0.091455631 99:0.082187042 101:0.17482138 103:0.30649927 105:0.065670833 106:0.1746297 111:0.065670833 118:0.1440648 128:0.10463116 154:0.14849547 181:0.078151517 202:0.080888838 229:0.043116819 286:0.14542077 292:0.22885226 343:0.06854742 372:0.13398331 452:0.17649822 469:0.091776453 470:0.10858522 475:0.0803793 507:0.088661551 536:0.1355907 553:0.12544689 582:0.12813158 608:0.39968356 645:0.14347598 867:0.11876011 975:0.15178236 1323:0.16473757 1377:0.12229069 1434:0.088661551 3436:0.26380429 6125:0.29682654 #
-0.88424503612590832 1:0.056488529 8:0.0288077 10:0.0056455499 15:0.062504359 25:0.091442257 37:0.083439142 48:0.077658772 54:0.11086232 90:0.072901599 92:0.13652696 93:0.11117153 95:0.065046921 98:0.13059659 100:0.04354924 101:0.065952778 103:0.057814669 108:0.072901599 111:0.037162282 114:0.13059659 126:0.087634981 179:0.058971912 198:0.034269221 200:0.095876761 228:0.056923371 275:0.08225143 287:0.073075421 302:0.038902201 397:0.17308269 416:0.13835235 431:0.058503032 452:0.09987808 453:0.095876761 459:0.05969087 462:0.069903024 469:0.051935121 470:0.061446991 475:0.090971239 491:0.1244722 497:0.07330101 507:0.050172441 527:0.08930885 584:0.074536011 678:0.10727675 710:0.083439142 745:0.097803257 782:0.062504359 791:0.23933098 838:0.074536011 855:0.10589391 897:0.14326765 1019:0.11966549 1027:0.081735872 1087:0.064460821 1214:0.095876761 1255:0.080657348 1377:0.069202743 1407:0.15255186 1462:0.095876761 1515:0.29963425 1597:0.097803257 1779:0.10457856 1838:0.13059659 1965:0.11966549 2120:0.10457856 2170:0.098820724 2202:0.14326765 2361:0.092393287 2699:0.22055066 2723:0.14326765 2955:0.098820724 3370:0.10212601 3373:0.13835235 3517:0.31407842 3545:0.13835235 3680:0.13419653 4388:0.09987808 4500:0.14928347 4705:0.15703923 #
-0.81969731846956617 1:0.054809999 10:0.0027389 25:0.029575029 29:0.16075081 67:0.031996511 72:0.15723641 83:0.15476736 86:0.042385008 93:0.03595604 99:0.18050645 103:0.05609674 122:0.05987386 145:0.082723938 159:0.083969817 179:0.057219591 201:0.16256885 229:0.02367424 239:0.10428842 312:0.11610969 339:0.092141017 341:0.04277838 372:0.036783248 378:0.03646997 385:0.075351179 469:0.05039189 475:0.044134039 487:0.11865295 504:0.085278012 511:0.069719441 531:0.085957482 548:0.081534721 587:0.10878956 595:0.18605568 624:0.072321206 659:0.088866957 691:0.04556381 721:0.070353493 796:0.11490012 801:0.056540109 854:0.083969817 859:0.041114941 939:0.080397218 1055:0.096910261 1069:0.05987386 1129:0.11610969 1145:0.077752709 1222:0.08665508 1358:0.072321206 1417:0.093945757 1434:0.048681591 1484:0.095884308 1509:0.092141017 1665:0.09302783 1835:0.11610969 1975:0.11207736 2180:0.097978093 2456:0.10550339 2925:0.12671599 4318:0.1390105 4321:0.69505256 #
-0.92552233964984343 3:0.050321288 8:0.020632479 10:0.0020217099 20:0.029280869 25:0.043661501 27:0.11787706 28:0.02194885 32:0.054928359 43:0.039405789 54:0.03970059 62:0.088627182 67:0.04723632 82:0.077194892 83:0.24752262 86:0.093859233 90:0.05221317 92:0.078226037 99:0.033310119 104:0.044195771 105:0.079848461 110:0.049318012 111:0.026616151 126:0.094148137 229:0.05242528 239:0.019245069 240:0.18594643 246:0.04723632 260:0.051653448 280:0.079999909 289:0.030166751 334:0.051379569 341:0.031576771 343:0.02778203 347:0.10691895 350:0.054629911 353:0.076833136 363:0.048133049 378:0.02692024 398:0.038132232 422:0.034980498 431:0.041900709 437:0.11606374 458:0.082492217 511:0.025731631 522:0.065596968 533:0.046587531 534:0.057393011 557:0.074002407 566:0.071534112 576:0.06617339 595:0.068668298 644:0.074900649 687:0.060618609 728:0.16293225 762:0.053996779 767:0.06294778 796:0.084813282 819:0.041734971 830:0.093535148 831:0.19825594 832:0.055962071 838:0.1067675 856:0.050321288 870:0.071534112 875:0.074002407 887:0.075842731 902:0.084160604 905:0.060618609 940:0.084160604 959:0.051109511 992:0.075842731 1094:0.060184691 1105:0.070776798 1113:0.1566395 1124:0.12491786 1132:0.31592304 1136:0.18594643 1137:0.065037251 1145:0.057393011 1180:0.050580472 1222:0.06396427 1313:0.056664292 1323:0.066767551 1484:0.070776798 1548:0.064493313 1589:0.078980759 1736:0.17477241 1769:0.18252181 1772:0.068668298 1773:0.099089928 1973:0.067380577 2040:0.09126091 2044:0.053084388 2120:0.074900649 2204:0.05815031 2320:0.074900649 2451:0.12589557 2485:0.076833136 2701:0.078980759 2798:0.084160604 2806:0.068668298 2894:0.09126091 3074:0.084160604 3076:0.10691895 3264:0.09126091 3516:0.09126091 3776:0.10691895 4234:0.099089928 4526:0.10691895 4557:0.093535148 4584:0.10261032 6032:0.10691895 6033:0.12030274 6034:0.11247372 6035:0.10691895 6036:0.10691895 6037:0.12030274 6038:0.11247372 6039:0.11247372 #
1.0000000026399696 10:0.00355394 40:0.056908309 41:0.25882572 67:0.083036162 69:0.13883932 70:0.10143969 87:0.11346027 110:0.08669553 239:0.03383068 242:0.063818991 246:0.083036162 252:0.088914789 267:0.078356758 281:0.10360732 290:0.14089708 295:0.29698825 300:0.092798181 307:0.090319507 318:0.47055066 323:0.16790091 330:0.12071117 341:0.05550842 391:0.063818991 1188:0.12441768 1320:0.1479449 1654:0.12857912 1891:0.28179416 2265:0.25149786 2270:0.16442429 2287:0.18795151 2470:0.15685022 2660:0.16442429 2895:0.19771618 3458:0.15361515 3523:0.21147873 3524:0.1479449 #
1.0000000026399696 4:0.045882668 10:0.00120321 14:0.0226942 16:0.092696317 20:0.034852721 25:0.01299246 26:0.02811156 36:0.031592902 39:0.020544849 55:0.029351359 67:0.084337369 68:0.03025906 70:0.13737239 78:0.037172109 80:0.030372251 82:0.12251238 83:0.02266336 87:0.03841275 99:0.019824339 101:0.056224909 120:0.01732376 168:0.060835119 171:0.039382748 180:0.020680839 198:0.029214591 207:0.026415 215:0.041688759 219:0.060835119 221:0.034840021 227:0.044042151 239:0.01145361 240:0.036888361 242:0.02160635 246:0.11244982 257:0.020957761 268:0.029214591 275:0.01752989 279:0.033305541 281:0.035076961 289:0.01795359 298:0.03025906 320:0.02608189 323:0.056843989 337:0.038382862 341:0.093963772 343:0.01653433 346:0.038382862 364:0.057201441 387:0.02229376 391:0.02160635 400:0.035566039 414:0.025865059 431:0.049873982 511:0.0306281 520:0.041270841 547:0.037172109 549:0.034157149 551:0.045137409 596:0.024740551 617:0.02949775 630:0.071597561 640:0.043813601 643:0.033305541 664:0.055666961 666:0.05008775 672:0.036076851 676:0.22840804 677:0.06106801 696:0.047005001 721:0.061813269 775:0.034607861 793:0.063542128 797:0.16700089 802:0.0353189 859:0.018061999 869:0.034607861 912:0.067876518 944:0.041270841 951:0.032705851 1126:0.04844331 1130:0.0353189 1147:0.042573161 1156:0.0670252 1164:0.11639673 1180:0.030102709 1186:0.036888361 1188:0.04212245 1212:0.045726851 1217:0.078765497 1239:0.02229376 1243:0.04047801 1270:0.032322761 1278:0.0401012 1324:0.047701661 1403:0.03090664 1434:0.021386061 1436:0.052007452 1449:0.046348158 1456:0.13936007 1462:0.040867589 1475:0.053102709 1499:0.086084522 1509:0.04047801 1511:0.13904448 1512:0.049236141 1542:0.047701661 1554:0.044042151 1569:0.042573161 1691:0.094778702 1731:0.055666961 1853:0.03973636 1895:0.04844331 1903:0.044042151 2071:0.051007561 2088:0.038382862 2113:0.055666961 2170:0.04212245 2173:0.066938162 2253:0.063632257 2256:0.057201441 2314:0.038068011 2341:0.045137409 2725:0.066938162 2904:0.063632257 3034:0.057201441 3519:0.053102709 3605:0.053102709 3635:0.063632257 3669:0.066938162 3947:0.054313459 3949:0.33469081 3951:0.06106801 3954:0.14319512 3957:0.21479268 3959:0.071597561 3965:0.066938162 3967:0.063632257 3970:0.60244346 3973:0.071597561 #
